449 100
0001024 -0.883764 -0.094953 -0.228373 0.581793 -0.402600 0.061164 -1.364514 0.456126 0.006428 0.807532 -0.074005 0.239423 0.291824 0.352542 -0.196271 -0.201038 0.120867 0.236518 -0.190508 -0.406139 -0.056626 -0.310724 0.447210 -0.948147 0.107808 0.654445 0.077654 1.303821 0.180098 0.403969 0.393854 -0.661997 0.543329 -0.813574 -0.586981 -0.218776 0.121135 0.533342 0.337892 -0.642649 1.355612 0.116561 -0.368766 0.562354 0.818563 0.485823 -0.322386 -0.006383 -0.308059 0.856147 0.691157 -0.163567 0.680705 -0.411568 0.064166 -0.652848 -0.435809 0.035528 0.579562 -0.657259 0.180785 0.604834 -0.999368 0.443494 0.777744 -0.929680 -0.995397 -0.094966 -1.132280 0.376764 0.211891 -0.073791 1.069658 -0.027642 -1.218283 0.254756 0.243723 0.800484 -0.825120 0.080999 -0.961243 0.429441 0.950886 -0.616181 -0.102983 -0.280112 -0.083007 0.148209 0.672327 0.140833 0.863526 -0.184086 -0.267955 0.574213 0.244038 0.328043 -0.275291 0.353790 -0.386916 0.068707 
9905196 -0.679488 0.319567 0.404630 0.957594 -0.623507 -0.292120 -1.294623 0.166013 0.089275 -0.792598 0.624231 -0.465782 0.286213 -0.254400 0.631706 0.580866 0.568188 0.426444 -0.477598 -0.116523 0.745942 0.405995 0.605080 -1.666952 -0.482203 0.126953 0.064023 0.901097 0.076279 0.005778 0.292248 -0.533080 0.497372 -0.110209 -0.204248 -0.324257 0.072383 0.004508 -0.916344 -0.059797 0.403058 0.015063 0.448423 -0.125087 -0.117416 -0.133203 0.704442 0.833138 0.328723 1.012646 -0.059849 0.504304 0.587266 -0.295759 -0.393585 -0.337622 -0.501293 0.652234 0.534743 -0.334089 -0.342394 -0.168447 -0.363728 -0.464208 0.219263 -0.106547 0.122954 0.823980 -1.129120 0.320483 -0.304669 0.734693 0.659128 0.087539 -0.701877 -0.031942 0.481649 0.384514 -0.149130 0.654429 -1.244557 0.529093 -0.638376 -0.371840 -0.645368 0.999466 0.478796 0.629909 0.205818 -0.053256 -0.322132 0.329839 0.150432 0.655538 -1.112834 -0.203622 -0.567611 0.185125 -0.087551 -1.200747 
9907066 -0.899822 0.114725 0.070184 0.064960 -0.624443 1.137980 -0.376628 -0.609810 1.303441 1.326548 -0.848575 -0.599525 0.626797 0.044036 -0.111232 0.079576 0.555171 -0.105017 -0.357639 -1.114950 0.073849 0.039932 0.466260 -1.105695 -0.642509 1.192340 -0.195815 0.880316 0.336160 -0.325612 -0.198251 -0.415123 -0.169318 -0.602803 -0.210614 -0.164013 -0.341908 -0.773497 -0.634771 0.116105 -0.287539 0.124894 0.427464 -0.084019 -1.163531 -0.530536 0.949036 0.281548 0.490768 0.999373 -0.157601 0.408887 0.378896 -1.005350 -0.430907 -0.324403 0.571281 1.186858 1.235307 0.368026 0.152252 0.278737 -0.276503 0.141446 -0.139850 -0.547898 -0.628583 0.170338 -0.781301 0.587729 -0.207282 1.066820 0.549742 -0.684820 -0.196034 -0.198717 -0.424572 0.635662 0.104432 -0.151917 -0.302626 0.237638 0.011100 -0.196925 -0.342567 0.240837 0.391379 0.749208 0.103330 0.232131 -0.193710 0.404793 0.358443 0.306211 -0.010743 -0.181468 -0.536585 0.867548 -0.277657 -1.439033 
0001028 -0.268816 0.031726 -0.593077 0.436439 -0.340936 -0.291540 0.534371 -0.141974 1.163700 1.524240 -0.170339 -0.422138 0.112308 -0.144961 -0.865178 -0.520936 -0.010624 0.110719 -0.956169 -1.084485 0.013972 0.546731 0.070429 -0.306219 0.171757 0.417468 0.134374 0.203566 0.533868 0.647130 -0.034768 0.278388 -0.040324 -0.708604 -0.827748 -0.147628 0.007295 0.598990 -0.345502 0.404279 1.353811 0.684698 1.064889 0.480423 0.061512 -0.075184 0.780515 0.771302 0.567011 0.111037 0.462261 0.135447 -0.479703 -0.942008 0.111528 0.395739 0.050083 0.184855 0.432210 -0.943509 -0.368632 -0.343636 -0.401849 0.597687 0.749922 -0.410046 -1.312402 0.775895 -0.016014 -0.236505 -0.415043 0.616471 0.810011 -0.366868 0.204904 0.415142 -1.203962 0.884802 -0.147962 0.129008 -1.204755 1.391820 0.419366 0.370923 0.656323 0.571760 -0.438840 0.038111 0.639418 0.155868 -0.166677 0.205706 -0.256829 0.446004 0.226572 0.204662 0.143337 -0.068920 -0.051137 0.844659 
9812136 -0.058028 -0.162640 0.670789 -0.259734 -1.040797 0.393191 -1.085999 -0.542404 1.256740 0.343056 -0.899082 -0.330614 0.123752 0.042811 0.022526 0.537587 -0.083319 0.644028 -0.552086 0.091364 0.340679 0.662622 -0.588361 -0.303302 -0.809155 0.206926 -0.908680 0.396453 0.391092 0.409196 -0.611072 0.620205 0.560666 -0.938898 -0.033393 0.346234 -0.176282 0.142313 -0.093774 -0.257612 0.792547 0.708017 0.041695 0.518563 -0.674119 -0.800285 0.740602 1.197884 0.862622 -0.208921 0.731278 0.841450 0.433004 0.516924 0.530077 -0.647958 0.194255 0.310872 0.544643 -0.079560 -0.205793 0.450746 0.116085 -0.144679 0.576881 -0.537192 -0.135112 0.381513 -1.270190 0.249187 0.735715 0.024954 0.153254 -0.196211 -0.116876 0.181857 -0.930041 1.409494 -0.348096 0.434813 -0.682346 1.132326 0.607529 -0.428336 -0.514462 -0.119748 0.557326 0.775207 0.077740 -0.985731 -0.503885 -0.273859 -0.351890 0.905289 0.333991 -0.060214 0.102095 0.333988 -0.269645 -0.331319 
9703189 -0.119702 -0.112096 -0.407948 -0.941234 0.078632 0.433105 -0.242333 -0.737684 0.449284 -0.182621 1.098908 0.027915 -0.262874 -0.062628 -0.033215 0.377888 -0.241404 0.084015 0.276101 0.416928 0.356869 -0.048100 0.505375 -0.675890 0.475346 -0.692205 0.795943 1.016152 0.794930 -0.116734 -0.192475 0.910718 0.448851 -0.623028 -0.297251 1.422178 -0.170402 0.668797 -0.061165 -0.600239 0.736163 0.628182 0.194036 -0.094307 0.107375 0.382715 -0.266721 0.517046 0.040409 -1.014190 1.146289 0.637577 -0.546747 -0.589057 -0.290935 -0.736340 0.288299 0.371293 0.598383 -0.099131 0.377682 0.181430 -0.606766 1.049240 0.343225 -1.160728 -0.374172 0.448323 -0.852485 0.323817 0.399685 -0.340005 0.450188 0.492977 -0.811463 0.209111 -0.765036 1.052880 -0.725715 0.662612 -0.918634 1.070162 0.013028 0.378045 0.141553 0.773266 0.418663 -0.259632 -0.480984 -0.110456 0.593911 0.241822 1.369503 -0.242039 0.661086 0.019880 -0.069710 0.923428 0.197300 -0.884625 
0001077 -0.001648 0.002374 -0.000202 -0.004561 0.000766 -0.004207 -0.001353 -0.003980 -0.003179 0.002350 -0.004540 0.003268 -0.000386 -0.002545 0.001368 0.001980 -0.001278 -0.001219 -0.004659 0.004529 0.002888 -0.003759 0.000939 0.000735 -0.003879 0.002895 0.000182 -0.004429 0.000544 -0.003477 0.004081 0.004163 -0.002627 -0.001194 -0.002463 -0.004137 -0.003271 0.004268 -0.003388 0.001047 0.002750 0.002938 -0.003745 0.000739 -0.003310 0.003257 -0.002392 -0.004524 0.004187 0.002472 0.002947 0.001734 -0.002933 0.003203 -0.000107 0.001859 -0.004741 0.000890 0.004500 -0.003407 -0.003531 -0.002478 0.004988 -0.002792 0.003346 0.004121 0.000656 -0.003441 0.001769 0.000987 0.000510 -0.003049 0.004040 0.002396 -0.001540 0.003419 0.002379 -0.004639 -0.004045 -0.000619 -0.001535 -0.004004 0.004266 0.001350 0.003513 -0.004898 0.003974 -0.001006 0.000671 -0.002713 0.004436 -0.000833 0.003652 -0.003815 0.000330 -0.004865 -0.004047 -0.002101 -0.003795 -0.000185 
0001098 -0.027421 0.001952 0.028605 -0.000095 0.013085 0.024998 -0.005211 0.020868 0.032504 0.054490 -0.066135 -0.028999 0.003231 0.049266 -0.006963 0.027151 0.057658 0.055681 -0.053626 -0.015880 0.076001 0.034951 0.020274 -0.003320 0.027771 -0.062539 0.020490 -0.065103 -0.041539 0.032925 0.019724 0.027431 -0.056033 0.042630 0.018016 -0.050961 0.028136 0.036610 -0.006644 -0.032544 0.074602 0.009863 -0.009280 0.024824 -0.054749 -0.023621 0.014715 0.103917 0.029052 0.076091 0.040126 0.021215 0.011025 -0.010571 -0.003948 -0.029100 -0.011840 0.066808 0.056437 -0.040012 0.023788 -0.054996 -0.086730 0.069411 0.007733 -0.028494 -0.050568 0.040690 -0.019991 -0.022197 0.033558 0.060452 0.038154 -0.070309 -0.076318 0.012487 -0.074206 0.094030 -0.013083 0.053786 -0.104103 0.058106 0.057483 -0.019424 -0.068863 0.089378 0.051010 -0.011693 -0.010878 0.073816 0.064557 0.016284 0.073822 0.102220 -0.104223 0.055556 -0.075031 0.037187 0.044432 -0.098315 
9510017 -0.356789 0.679985 -1.107266 -1.288779 -0.494560 0.180940 -0.010824 0.351506 0.201724 0.137577 0.148963 0.573941 -0.246672 -1.029503 -0.047934 -0.781230 0.081023 -0.805143 -0.248641 -0.078966 -0.384792 -0.502966 -0.668397 -0.562669 0.518406 0.691683 0.113014 0.011443 0.763561 -0.825329 -0.128258 -0.759097 -0.142299 -0.737408 -0.262419 -0.197215 0.530340 0.668209 -0.781244 -1.809913 0.858081 0.905680 1.237131 -0.233308 0.113312 -0.118629 0.124127 -0.144485 0.428644 0.239400 0.079407 0.259672 0.201622 0.721868 -0.201125 -0.378186 0.201401 -0.242708 -0.117125 0.281879 -0.875948 0.782301 0.810442 -0.965041 0.309240 1.730007 -0.069445 -0.148481 -1.072176 -0.179757 -0.312498 0.230769 0.928582 0.264850 -0.822467 0.562661 -0.462090 0.379029 -1.113168 0.752691 -1.495418 0.178187 0.230441 0.363156 0.209898 0.276669 0.668838 -0.554056 0.101468 -0.467878 -0.154649 -0.273093 0.039143 0.725628 -0.906269 0.909718 -0.920844 1.581323 0.245291 -1.106291 
9803132 -0.387278 0.231338 -0.278672 0.939015 -0.022116 -0.352045 -0.665706 0.666378 0.760710 0.859968 -0.322505 -0.792825 0.393542 0.480837 0.502671 0.641486 0.178199 -0.059497 -0.183488 -0.458353 0.035515 0.690638 0.038622 -0.967235 -0.360083 0.255446 0.061845 0.969566 0.175500 0.270489 -0.130943 -0.101572 -0.283146 -0.771510 0.023298 -0.315854 0.040924 -0.023545 0.471554 -0.749027 0.014305 0.100512 0.566697 0.031174 -1.043520 0.501368 0.763093 1.267677 0.101778 -0.060578 0.530483 0.177936 -0.419631 0.211652 0.359790 -0.003154 -0.126150 -0.188379 0.282732 0.073054 0.763336 0.262397 0.559292 0.337848 0.602392 -0.646320 0.148659 -0.328791 -0.686409 -0.031657 0.310938 0.598454 -0.355960 -0.526929 0.051065 0.911096 -0.823271 0.836682 -0.434610 0.027615 -1.404508 0.939685 0.791727 -0.385117 -0.098336 0.399427 -0.027123 -0.191467 -0.075223 0.627153 0.897194 0.853245 0.757189 0.473337 -0.735073 0.707557 -0.861525 0.105740 0.040652 -0.981571 
0001167 -1.025993 1.092935 0.468770 0.404612 -0.309772 0.983978 -1.526251 -0.476189 0.387358 0.405570 -0.822191 -0.581758 -0.354316 -0.008061 0.485962 0.111814 0.694714 -0.261780 -0.037134 -0.633670 -0.339057 0.835224 0.729479 -1.289991 -0.352913 0.040031 -0.355715 1.071241 -0.161020 0.791141 0.173642 0.354902 -0.513539 0.006887 -0.416895 1.062395 0.710436 -0.430111 -0.516843 -0.356728 1.688898 1.006748 0.988030 0.338091 -0.215462 -0.262052 0.727864 0.033977 0.770487 0.603059 0.009195 0.640776 0.000380 -0.858646 0.251700 0.370898 -0.027541 0.563430 0.449896 -0.545483 0.564519 -0.540911 -0.307181 0.369522 -0.159236 -0.584532 -0.431350 -0.148262 0.630629 0.087012 0.329377 0.353580 0.164462 0.251947 -0.022617 -0.356732 0.423652 -0.278122 -0.591313 -0.112954 -0.411782 1.210687 0.533930 -0.153375 -0.428891 -0.307527 1.024229 0.294616 -0.641108 0.076488 0.509889 -0.387227 0.543980 0.376564 0.707021 0.117150 0.051583 0.331269 0.014197 0.132581 
0001202 0.014932 0.019848 -0.011417 0.016067 0.006909 0.043292 -0.085730 -0.027888 0.015726 0.107223 -0.089592 -0.043323 0.008138 0.094542 -0.067772 0.049645 0.056216 0.073170 -0.057503 -0.012808 -0.010942 0.032020 0.026758 -0.005971 0.013541 0.028956 -0.024884 -0.026386 0.016757 0.038197 -0.043315 0.022061 -0.055357 0.048111 0.022416 -0.023934 0.040904 0.086643 -0.051430 -0.030813 0.076941 -0.018437 -0.007533 0.020540 -0.087023 -0.008639 -0.009152 0.034796 0.047328 0.058292 -0.037329 0.025951 -0.013896 0.017144 -0.022884 -0.011917 0.014537 0.017399 -0.016069 -0.006659 0.001337 -0.021876 -0.002103 -0.051046 0.003443 0.015339 -0.016171 0.008280 0.015168 0.041021 0.011085 -0.017734 0.001373 -0.034051 0.014659 -0.061333 -0.075263 0.066903 -0.058086 0.099995 -0.075743 0.026884 -0.001692 -0.037214 -0.125385 0.088223 0.017813 0.053279 -0.003256 0.070035 0.055544 0.049528 0.093708 0.060228 -0.049662 0.013781 -0.031279 0.080997 0.061363 -0.025009 
9808042 -0.835803 0.645259 -0.236504 -0.260525 -0.493686 -0.109137 -0.324896 0.891217 1.155584 1.383579 -0.856429 -1.448008 -0.685035 -0.014390 -0.852597 0.451360 1.044956 0.280537 -0.216393 -0.852941 0.357433 1.014868 -0.800935 0.665635 -0.504147 0.674675 -0.064058 0.877040 0.200735 -0.659035 1.011365 0.089421 0.026841 -0.365574 -0.638571 0.145284 1.333975 -0.080786 -0.829922 0.091048 1.626061 0.004850 0.738133 0.273040 -0.627622 0.413192 1.225196 0.667645 0.337994 0.674232 0.071315 1.121752 0.807410 0.174430 0.606006 -0.058850 -0.203815 0.144740 -0.581068 -0.362353 0.526538 0.592963 -0.491696 -0.388483 0.084159 -0.436041 -0.735554 0.494084 -0.630403 -0.204540 0.349881 -0.337703 0.678513 0.389757 0.080347 0.048740 -0.345689 0.229635 0.761154 -0.168998 -1.117973 0.700358 0.252323 -0.111477 -0.313963 0.945004 0.182703 0.249461 -0.352414 0.405842 0.029864 0.386900 -0.062907 -0.306078 -0.076904 0.066404 -0.324799 -0.677479 -0.128963 -0.071457 
9810022 0.279134 0.179550 -0.146089 0.215133 0.670336 0.098475 -0.809106 -0.323007 0.363390 1.172877 -0.916285 -0.529782 0.005984 0.184007 -0.400601 0.273434 0.439558 0.283032 -0.085533 -0.308304 -0.275422 0.200673 0.376638 0.165808 -0.498262 0.779901 -0.673341 1.271260 0.422833 0.266415 0.054813 -0.105855 0.196413 -0.380340 -0.388438 0.540217 0.263898 1.028463 -0.932595 -0.248212 1.135736 -0.186798 0.361080 0.023997 -1.004270 -0.221478 -0.224594 0.302065 0.762213 0.680380 -0.111992 0.614706 -0.091076 0.332520 -0.273956 -0.092388 0.318969 0.131066 -0.153051 -0.002746 -0.165315 0.576143 0.603757 -0.916966 0.313561 0.377623 -0.101464 0.044353 0.058640 0.771722 0.010083 -0.199926 -0.579362 -0.458540 0.705037 -0.379973 -0.850850 0.340227 -0.717369 0.384808 -1.253902 0.490647 -0.124106 -0.564933 -1.527022 1.149520 0.131018 0.603342 0.050588 0.895266 0.391514 0.630740 0.915141 0.380625 0.062571 -0.174368 -0.468401 0.834767 0.706848 -0.351291 
0002072 -0.604962 0.432447 0.871304 0.349628 -0.208942 -0.132171 -0.751087 0.284373 1.005202 0.374306 -0.956863 -0.947035 0.043765 0.145907 0.395914 -0.654039 0.306731 0.029867 0.407368 -0.821368 -0.012003 1.061136 0.219868 -1.235386 -0.476093 0.354704 0.059144 0.653314 -0.769233 -0.194140 0.256258 -0.561282 0.680170 0.136595 0.438401 0.590275 0.559247 0.106912 -0.558204 -0.821536 0.398606 1.001103 0.674264 0.536847 -0.807951 -0.104913 0.090377 0.975796 0.561870 0.231703 0.969626 0.078104 0.019875 0.108833 -0.184330 0.124183 0.687549 -0.145870 0.933229 -0.427826 0.149025 -0.301146 -0.660468 0.121377 0.785865 -0.487441 0.063886 0.570513 -0.789357 0.426729 -0.641603 0.030274 0.202978 -0.099082 -0.796070 0.326809 -0.823295 0.995075 0.052198 0.227117 -1.284349 0.644941 0.301600 0.140468 -0.515601 0.212593 -0.031176 -0.409120 -0.220681 -0.571880 -0.010926 0.116033 0.366610 -0.250337 -0.192750 -0.472097 -0.484560 0.170561 0.693320 0.461595 
9911055 0.305096 0.111843 0.727982 -0.299224 -0.501116 0.691351 -1.079805 0.375671 0.914288 0.237173 -0.466288 -0.969924 -0.302312 -0.640585 0.093183 0.658487 0.679975 0.070252 -0.178213 -0.104945 0.187025 -0.111226 -0.105264 0.405469 0.202130 0.978383 -0.313097 0.742111 0.757702 0.273826 0.856060 -0.184131 0.335643 -0.555708 -0.100051 0.505215 0.318304 -0.000493 -0.213537 0.046912 1.479651 0.544280 0.741083 1.167477 0.412179 0.000749 0.231905 0.352306 0.334084 0.880971 0.936497 0.710820 -0.927655 -0.360976 -0.441979 -0.237646 0.504382 0.339808 0.547543 0.152667 0.486206 0.067162 0.473109 -0.000708 0.563522 0.225573 -0.447935 0.266291 0.050603 0.575371 0.455062 0.877106 -0.210263 -0.211659 -0.235455 -0.427803 0.318794 -0.043324 -0.303209 -0.345020 -0.600030 0.023708 0.147118 0.275767 -0.204714 1.154997 0.156132 0.109202 -0.548923 0.076808 0.941251 0.323801 0.026301 0.030125 -0.435474 0.559277 -0.684664 0.030109 0.244683 -0.847797 
0002078 -0.038065 0.014781 0.028570 0.032756 -0.068033 0.054298 -0.096635 -0.013956 0.047773 0.072496 -0.078788 -0.051356 0.026913 0.103958 -0.044097 0.077910 0.028082 0.084823 -0.094779 -0.035804 0.032839 0.011243 0.032476 0.007988 0.053403 -0.016486 0.001788 -0.075975 -0.006779 0.040718 -0.023125 0.038597 -0.044718 0.067751 0.065656 -0.064706 0.058133 0.071474 -0.002369 -0.074610 0.111924 0.061490 0.021838 0.051795 -0.052449 -0.019255 0.027495 0.083700 0.040614 0.072764 0.049478 0.021095 0.001912 -0.043462 0.010996 -0.032718 -0.011012 0.056892 0.046422 -0.056990 -0.016010 -0.043158 -0.065042 0.062385 0.002063 -0.089924 -0.064230 0.057301 -0.006222 0.010690 -0.001080 0.039182 0.045972 -0.018985 -0.068315 -0.029916 -0.060555 0.139363 -0.058882 0.125855 -0.097295 0.039262 0.038215 0.004294 -0.058620 0.067609 0.077638 0.036317 -0.031008 0.054003 0.085674 0.015273 0.102239 0.129957 -0.133979 0.093019 -0.060824 0.118277 0.068603 -0.082222 
9912033 0.002173 0.000330 -0.002054 0.000381 -0.000253 0.002803 -0.001352 0.004614 0.000943 0.002913 -0.000139 -0.000676 0.004353 0.001132 -0.001597 0.002817 -0.001169 -0.003086 -0.002333 0.001104 -0.003468 0.003113 0.001434 -0.002755 0.004239 0.001682 -0.002567 -0.004787 0.000432 0.000811 -0.003908 0.000887 -0.003393 -0.000819 0.003210 -0.003808 0.002609 -0.004560 0.001352 -0.001317 -0.001536 -0.002952 -0.004153 -0.003344 -0.003448 -0.002343 -0.002414 0.004003 -0.004633 0.000863 0.001380 -0.000116 0.003059 -0.003032 0.002721 0.002980 -0.002851 -0.003595 0.004297 -0.002669 -0.004893 -0.003658 -0.003158 -0.003907 -0.002915 0.004158 -0.002049 -0.000767 0.000945 -0.001553 -0.004749 0.000557 0.002967 0.000912 -0.003761 -0.001126 -0.002064 -0.003825 -0.003438 0.004447 -0.002699 -0.000263 -0.000561 0.000232 -0.004570 0.004311 0.004188 -0.003344 0.002461 0.000225 -0.001975 -0.003736 0.000243 0.001152 -0.001993 0.003217 -0.000358 -0.003533 0.000999 -0.004201 
0002161 -0.003584 0.003439 0.000610 -0.002507 0.003187 -0.001511 0.004073 0.004509 0.000642 -0.000944 0.004699 0.000932 -0.003248 0.003317 -0.003608 0.000782 -0.004628 0.002862 -0.000100 -0.001076 0.003721 -0.003897 0.003367 0.000548 -0.001772 -0.001525 0.002874 0.004256 -0.000349 -0.004568 0.004388 -0.004343 -0.002568 0.004798 -0.000611 0.000176 -0.000052 -0.001676 -0.003510 0.000424 -0.000172 0.001387 0.004588 0.002670 -0.002330 0.001661 0.002004 -0.000989 -0.002746 0.002107 0.000944 -0.001083 -0.001077 0.000777 -0.002508 0.004103 -0.002438 0.004382 -0.003210 -0.002731 0.003457 0.001631 0.001157 0.001629 0.003181 0.002743 0.002740 -0.000997 0.004279 -0.002352 0.003502 -0.003880 -0.002149 0.003090 0.000504 -0.000173 0.001282 -0.004701 -0.003805 -0.002637 0.000832 -0.000710 -0.002855 0.000623 -0.000723 0.001911 0.004044 0.000926 0.001216 0.003886 -0.001723 -0.002323 -0.004656 -0.003685 0.001539 -0.003165 -0.001476 0.000143 -0.001069 0.000989 
0002193 0.072071 -0.066412 -0.060434 -0.057667 0.078257 -0.162632 0.007067 -0.065221 0.134335 0.131081 -0.191060 -0.143967 0.102173 0.112545 -0.094101 0.161005 0.047258 0.077449 -0.044977 0.049735 -0.081799 0.061766 -0.118400 -0.019472 0.072770 -0.082500 0.132297 -0.206895 0.043785 0.087388 -0.081886 -0.064055 -0.053422 0.058489 0.099808 -0.056331 0.084486 0.011722 -0.093248 -0.024565 0.107276 0.182692 0.039813 -0.000463 -0.042686 -0.030109 0.119302 0.223451 -0.043037 0.055588 0.065712 -0.062311 -0.065921 -0.033747 0.027115 -0.060025 0.072587 0.156879 0.140529 -0.100681 -0.018338 -0.047378 -0.180723 -0.041110 0.007753 -0.027320 -0.089035 0.058789 -0.112433 -0.152880 -0.131722 0.031634 -0.093904 0.069106 -0.036281 0.029773 -0.086889 -0.055413 -0.171484 0.087679 -0.081600 0.140259 0.067637 0.025353 -0.083701 -0.025472 -0.006744 0.116512 -0.062815 0.005501 0.006906 0.013643 0.020810 0.060007 -0.077154 0.154301 0.177977 0.054503 0.022872 0.030708 
9802068 -0.814812 0.658525 0.834875 -0.004731 0.337060 0.061039 -0.926325 0.076357 0.979710 0.457779 -0.646525 -0.451078 -0.249725 0.448761 0.598987 -0.227109 0.642676 -0.301724 0.225279 -0.423565 -1.196915 -0.828971 -0.001130 0.080889 0.261721 0.686505 -0.882248 0.643627 0.073990 0.433177 0.091833 -1.009848 -0.379467 -0.889288 0.622184 0.229233 -0.706208 0.086638 -0.517022 0.608017 0.063612 0.514259 0.965916 0.273431 0.785042 -0.571973 0.281991 0.653426 0.157073 0.093098 0.876020 0.587129 -0.018075 -0.447351 -0.417580 -0.930632 -0.674526 1.128712 0.698200 -0.698013 0.465114 0.092211 -0.273106 0.448538 0.961947 -0.477169 0.048691 0.777916 -1.296822 0.424765 -0.210284 0.244435 0.134613 -0.952527 -0.495393 -0.536924 -0.179156 -0.080435 -0.835203 0.503508 -0.407395 0.746810 0.421664 -0.431670 -0.775840 -0.015828 0.980868 -0.218771 0.528532 0.193918 0.191680 0.627617 -0.329712 -0.216509 -0.253096 0.832200 0.124817 0.028096 0.454267 -0.773135 
9410237 -0.492918 -0.045255 -0.547871 0.307551 0.625870 0.520892 -0.152334 0.372579 0.799492 1.324714 -0.393813 -0.960129 -0.422126 0.218942 0.028195 -0.414696 -0.582311 0.065708 -0.636906 -0.447091 0.593683 -0.859674 0.326193 -0.409015 0.248198 0.927472 -0.405087 1.708613 -0.094067 0.289362 0.750346 0.223432 0.385156 0.261936 -0.012450 0.152566 0.668670 0.083564 -0.146318 -0.261047 1.682195 1.027561 -0.218216 -0.392987 -0.182908 -0.738593 0.593214 1.395371 -0.353850 0.005303 0.722459 1.154047 0.215107 0.419301 -0.228081 -0.717443 0.383079 0.715563 -0.325397 0.442232 -0.315478 0.152339 -0.403509 0.880275 0.926716 -0.108728 -0.684541 -0.192283 -1.296342 -0.115741 -0.368322 -0.046944 -0.562762 -0.420083 0.374437 0.149339 -0.553975 0.216302 -0.740943 -0.535142 -0.071810 -0.130223 0.636472 0.748568 -0.041526 -0.374901 -0.035850 0.404083 -0.069811 -0.185861 0.086118 0.213921 -0.363063 0.827839 -0.603990 0.499632 -0.977650 0.624824 0.442424 -0.299769 
0002230 0.094437 -0.015277 0.094093 -0.094446 -0.087570 0.117464 -0.233160 0.049944 0.091135 0.044791 -0.201634 -0.218597 -0.074853 0.093910 -0.029996 0.170448 0.205897 0.094570 -0.178190 -0.012611 0.044959 -0.050766 -0.050919 0.043479 0.124045 0.096393 -0.055749 -0.107801 0.059339 0.160487 0.072843 0.005409 -0.074105 0.079036 0.028831 0.006364 0.027547 0.029955 0.061475 0.015798 0.140964 0.034302 0.147660 0.166548 0.098987 0.052996 -0.044112 0.036358 0.097195 0.054244 0.120287 0.032389 -0.109580 -0.067643 -0.077316 -0.062401 0.119965 0.064614 -0.019160 0.046069 0.055853 -0.013656 0.069508 0.016637 0.091522 0.058598 -0.037189 0.051854 0.013514 0.034971 0.144988 0.169327 0.037907 0.013830 -0.046275 -0.070447 0.066076 -0.023929 -0.074538 -0.041788 -0.049464 -0.073671 0.080850 0.010192 -0.006674 0.257977 0.055381 0.062429 -0.082123 0.027472 0.180162 0.100432 0.131293 0.070529 -0.141081 0.185562 -0.129487 0.031193 0.052872 -0.187703 
9906064 0.328233 -0.003597 0.349492 0.741078 -0.245880 -0.189145 -0.526861 0.947739 -0.530853 0.090964 -0.030328 -0.315854 -0.327461 -0.655844 -0.530606 -0.343865 -0.375594 0.460981 -0.034303 0.137120 -0.505585 -0.288157 -0.821617 0.005185 -0.945310 0.717465 -0.613323 0.214998 -0.031121 0.512306 0.591009 0.006960 0.822879 0.046445 -0.559120 0.973610 0.331369 0.192211 0.004228 -0.749099 0.676363 0.998986 0.158384 0.808829 -0.068466 0.535218 0.451651 0.334283 -0.264155 -0.407896 0.767334 1.235943 -0.378431 -1.035032 0.488407 0.084785 0.144576 -0.575259 0.339076 0.032230 0.279567 0.446898 0.063997 -0.264237 0.603064 -0.118122 -0.355452 0.674296 -1.101889 -0.306336 0.039222 0.551952 -0.514893 1.273437 0.594967 -0.506760 -1.009613 0.442324 -0.256696 1.068449 0.352863 0.889211 0.102227 -0.530801 -1.604667 0.401931 0.209769 0.965630 -0.252404 0.911074 0.705144 -0.074435 0.184624 1.143756 -0.308630 1.087152 -0.483071 0.092858 -0.408893 -0.902427 
9301052 -0.068292 -0.012132 0.135392 -0.123025 0.179847 0.243323 -0.029548 -0.025291 1.118927 0.706793 -0.291279 -0.641755 0.298792 0.260622 0.184667 0.266061 0.119490 -0.378039 -0.174856 -0.126950 0.253340 -0.105069 0.203329 0.306146 0.554814 0.133609 -0.712126 1.477199 -0.213831 -0.853833 0.141704 -0.700124 -0.320851 0.193880 -0.128631 -0.406194 0.220590 0.026078 -0.978179 -1.149415 1.031917 1.342599 0.147088 -0.309702 -0.392995 0.482275 0.981262 0.179036 0.362609 0.084132 0.147327 0.972085 0.486133 -0.053085 0.071698 0.166665 -0.533924 0.408194 1.056810 -0.110449 -0.429481 0.252754 -0.365266 1.324682 0.263835 -0.780658 -1.157166 -0.124124 -0.643857 0.518212 0.729657 -0.651444 -0.051249 0.090284 0.269333 0.307327 -0.160770 1.232545 -0.725225 0.436069 -1.649293 0.676114 0.226402 -0.475810 0.218190 0.349224 -0.323669 -0.252139 0.251662 -0.117984 0.387540 0.635612 0.302990 -0.577648 -0.317427 0.038885 0.419801 -0.729112 -0.643304 -0.157428 
0003118 -0.567455 0.285799 -0.007575 0.019574 0.488448 0.134609 -0.265358 0.197396 0.721622 0.483048 -0.356715 -0.516514 0.291984 -0.172215 0.358113 0.338106 0.115442 0.172160 -0.133431 -0.543648 0.441651 1.081103 0.312605 -1.454218 -0.649964 0.511236 -0.180090 0.815748 0.615275 0.279802 -0.086186 0.051064 -0.162720 -0.033952 -0.179691 0.142828 0.175668 -0.021814 -0.436524 -0.074434 0.484236 0.599416 0.112768 0.000483 -0.455411 -0.128941 0.154763 0.852347 0.323392 0.319008 0.012022 0.248946 -0.009718 -0.202230 -0.025201 0.011235 -0.041161 0.186608 0.460924 -0.564392 0.188502 -0.027919 -0.343033 0.339949 -0.006159 -0.036104 -0.177502 0.260926 -0.841605 0.058261 0.410184 0.983724 0.040343 -0.131478 -0.124312 -0.054611 -0.828576 0.058072 -0.324953 0.007463 -0.831941 0.540496 0.662492 -0.106270 -0.161061 0.319472 0.268819 0.403166 0.031915 0.254273 0.512166 0.004516 -0.021320 0.581660 0.169070 -0.304550 0.053534 -0.370434 -0.390224 -0.191609 
0003176 -0.078538 0.129467 0.018022 0.079710 0.039997 0.020788 0.081126 0.014944 -0.026866 0.057826 -0.002914 -0.085878 -0.020832 -0.025881 0.060207 -0.082478 0.086745 -0.086053 0.011546 0.129865 0.007944 0.086122 0.030297 -0.143349 0.004147 0.095821 -0.115142 -0.059750 -0.003936 -0.006373 -0.017570 -0.021657 -0.085187 0.122060 0.204873 -0.148260 0.187548 0.081068 -0.084084 0.049838 0.135565 0.020235 -0.035990 0.052051 -0.097894 -0.086189 0.097210 -0.013792 0.050533 0.133475 -0.007335 0.028034 -0.008940 -0.136163 0.084589 0.007019 -0.099052 0.117737 0.034848 -0.092631 -0.008642 -0.141306 -0.107942 0.078210 -0.064278 -0.055000 -0.030104 0.132875 -0.053835 -0.027388 -0.073443 0.021316 -0.013478 0.102171 0.053542 -0.078834 -0.118181 0.083401 -0.018732 0.207726 -0.065795 0.027168 0.044395 -0.005183 -0.006035 0.076093 -0.074205 0.009144 -0.027124 -0.006045 0.129715 -0.031784 0.105253 -0.011297 0.037506 0.101947 0.031175 0.228412 0.021718 -0.037379 
9903077 0.001586 -0.319146 -0.357439 -0.301097 0.422549 -1.063145 -0.079751 -0.455229 1.106272 1.038198 -1.146816 -0.935405 0.646770 -0.142413 -0.519487 0.826132 0.224657 0.446047 -0.188047 -0.063686 -0.498676 0.340769 -0.907845 -0.348397 0.069116 0.116946 0.581224 0.125920 0.600509 0.104674 0.064936 -0.622967 0.465144 -0.355473 0.021883 0.478633 0.479636 0.058548 -0.946298 -0.204327 1.000929 1.428304 0.487594 -0.222777 -0.282466 -0.151272 0.812487 1.353753 -0.094402 0.180410 0.701574 -0.283626 -0.145307 -0.495076 0.056418 -0.406438 0.591193 0.921509 0.944319 -0.663864 -0.210121 0.216094 -0.806708 -0.238061 0.268488 -0.178279 -0.745086 0.445826 -1.034956 -0.843183 -0.709936 0.562279 -0.608753 0.598482 -0.123946 0.437560 -0.720092 -0.561592 -1.228657 0.422571 -1.083190 1.108046 0.548462 0.454236 -0.509228 -0.083390 0.204307 0.653950 -0.504997 0.062963 -0.188474 -0.078860 -0.164462 0.518866 -0.225460 0.846579 1.077048 0.266463 -0.186581 -0.020631 
0003188 0.004989 -0.004671 0.000904 -0.003665 -0.000510 -0.002479 -0.001668 -0.001843 -0.003600 0.001598 -0.000557 -0.001991 0.004748 0.004904 0.003547 -0.001461 0.002986 -0.000762 -0.003941 -0.000468 -0.004969 -0.003096 0.004029 -0.000997 0.003989 -0.000925 -0.004709 -0.003928 0.003204 -0.001466 0.002805 0.002068 0.000092 -0.000436 -0.001706 0.004006 0.004657 0.001876 0.004853 -0.002894 -0.000373 0.001408 -0.001085 0.000470 -0.000469 0.004440 0.004053 0.000969 -0.002423 0.001301 -0.002734 -0.001987 0.002387 0.003729 -0.003580 0.000497 0.002258 -0.000772 -0.000646 0.002831 0.002337 0.004266 -0.002733 -0.003610 0.003089 0.004532 -0.004775 0.003220 0.001766 0.003232 0.002810 0.002579 -0.002462 -0.004295 -0.003622 0.004182 0.000655 -0.001096 0.002377 0.004080 -0.004026 0.000466 0.001231 0.004885 -0.001823 -0.004944 0.002466 0.001694 -0.000244 -0.003385 -0.001658 -0.003144 0.001630 0.002849 -0.002772 -0.004758 -0.000786 0.004974 0.000879 0.003313 
0003237 0.204976 -0.033463 0.088488 -0.146100 -0.117537 0.176659 -0.286032 0.068005 0.113078 0.036198 -0.238599 -0.239172 -0.079779 0.105047 -0.004207 0.184406 0.225149 0.136951 -0.183459 0.001906 0.059533 -0.061088 -0.068894 0.070548 0.173355 0.156794 -0.055526 -0.096824 0.073953 0.190773 0.115658 -0.000166 -0.066749 0.085318 0.056526 0.036222 0.035929 0.056313 0.058657 0.017535 0.214419 0.066999 0.151653 0.193179 0.122790 0.047173 -0.065486 0.040377 0.112556 0.104198 0.172733 0.045880 -0.137358 -0.048419 -0.073842 -0.075948 0.152539 0.086002 0.004936 0.099418 0.078013 0.014309 0.095769 0.031585 0.119156 0.093173 -0.042921 0.030258 0.045648 0.072759 0.165328 0.210182 0.052039 -0.011794 -0.086603 -0.089220 0.077426 -0.025501 -0.081457 -0.072521 -0.061771 -0.077927 0.098030 0.001877 -0.027151 0.387802 0.040095 0.081518 -0.100294 0.054895 0.260009 0.123500 0.155775 0.080327 -0.192205 0.212615 -0.155646 -0.023293 0.021130 -0.221270 
0004014 0.105874 0.007214 0.088708 0.114539 -0.038163 -0.017019 -0.094937 0.168287 -0.142803 0.012345 -0.006369 -0.058793 -0.052401 -0.004290 -0.130692 -0.034444 -0.058420 0.117302 -0.059251 0.034572 -0.089992 -0.048152 -0.108272 0.007375 -0.129386 0.094420 -0.090730 -0.089225 -0.035804 0.123900 0.094425 0.037022 0.060983 0.059531 -0.044799 0.157742 0.051893 0.063380 0.022891 -0.164912 0.090319 0.136832 -0.024104 0.159222 -0.060232 0.095457 0.054701 0.074794 -0.023241 -0.051419 0.098241 0.186807 -0.040166 -0.161557 0.086044 0.005768 0.030823 -0.112115 0.031558 0.023731 0.076541 0.038543 -0.037137 -0.028145 0.091521 -0.020192 -0.034865 0.113147 -0.139185 -0.070380 0.020594 0.072372 -0.020509 0.223306 0.060707 -0.108102 -0.203242 0.128579 -0.057255 0.259495 0.095269 0.128217 0.019378 -0.096439 -0.262305 0.093718 0.058256 0.204247 -0.064886 0.222121 0.151378 -0.000106 0.113649 0.278266 -0.142974 0.252844 -0.097281 0.034563 -0.019521 -0.201036 
9911015 0.003391 -0.003124 0.002744 0.001917 0.004107 0.000696 -0.001446 -0.002536 -0.002018 0.000583 0.004183 0.004290 0.002088 0.002186 -0.002384 0.001859 -0.001617 -0.002405 -0.000456 0.004965 -0.001620 -0.001908 0.001219 0.002375 0.002231 -0.003814 0.003005 0.000341 -0.000657 -0.003629 -0.000962 0.004730 0.003755 0.004515 0.003875 0.004421 0.000041 -0.000186 0.002771 -0.001658 -0.002432 0.004999 -0.001028 -0.000899 -0.002951 0.003130 -0.002338 -0.000754 -0.000512 0.001049 0.003894 -0.000518 0.001909 -0.001258 0.001439 0.001958 0.004931 -0.000690 0.001090 -0.000965 0.000330 0.004243 -0.002076 0.000448 0.001078 -0.003231 -0.003322 -0.004882 -0.004910 0.000290 -0.002013 0.003853 -0.003616 0.001395 -0.002379 0.000604 -0.000594 -0.004721 0.004962 -0.001391 0.003294 0.001666 0.000657 -0.004346 0.003296 -0.002675 -0.003812 -0.000613 -0.000986 0.003274 -0.002956 0.001185 0.002093 0.000288 0.004687 -0.000121 0.001828 0.003041 0.004975 -0.002277 
0004049 0.012238 0.011501 -0.008928 -0.033233 -0.031856 -0.030090 -0.002569 0.017304 0.079207 0.091720 -0.061013 -0.084253 0.030216 -0.118896 0.038781 0.002355 -0.009286 -0.001410 -0.012576 -0.008193 -0.044361 -0.098660 -0.025544 0.001220 0.009024 0.042453 -0.051191 0.099118 0.053879 -0.004177 0.026247 0.041093 0.056589 -0.088913 -0.028816 0.020446 0.014892 0.038615 -0.061590 -0.043434 0.127565 0.069634 0.048886 0.029711 -0.011837 0.014056 0.072551 0.036089 0.025767 0.053625 0.007158 0.060458 -0.041441 -0.102568 -0.000766 -0.033736 -0.026640 0.135520 0.072557 -0.031554 -0.044112 -0.042909 -0.005070 0.049406 0.047041 -0.090760 -0.068402 0.054517 -0.028561 0.025956 0.040942 0.027755 0.042223 0.003040 -0.032754 -0.043163 -0.024802 0.070867 -0.057228 0.108231 -0.103619 0.092776 -0.009245 0.032111 -0.150656 0.212485 0.120807 0.043299 -0.048186 0.038031 0.062846 -0.031566 0.117112 0.094495 -0.102373 0.140269 -0.000282 0.114881 0.062114 -0.049468 
9405194 -0.363529 0.302437 -0.911916 0.562701 0.331896 -0.502330 -0.781627 -0.430289 0.789612 0.368567 0.436368 -0.410624 0.768926 0.048081 -0.066294 0.344346 0.025669 0.236456 -0.286426 0.067070 0.009667 0.236002 -1.225838 0.327565 -0.559557 1.150965 0.118321 0.957601 0.654568 0.587396 -0.056366 -0.617305 -0.265875 -0.528982 -0.438346 -0.197835 0.457642 0.017950 -0.215336 0.138848 0.776959 0.931857 0.315924 1.237331 -0.340520 -0.798185 0.648614 -0.057443 -0.125129 -0.389271 0.355772 0.164984 0.911795 0.321630 0.645622 0.530141 -0.087925 -0.304714 1.230390 0.306669 -1.005118 0.506761 -0.720952 0.702994 -0.171491 0.002384 -0.946391 0.924123 1.223444 -0.377408 0.375927 0.365248 -0.235062 -0.654187 0.506264 0.072103 -0.332551 0.934802 -1.058890 -0.009455 -0.793884 0.805399 0.363053 -0.425980 -1.081499 0.523052 -0.085231 0.247561 -0.819965 0.167954 -0.296150 0.564829 0.772448 0.601729 0.070216 0.644170 -0.058267 0.071460 -0.372889 -0.274270 
9606181 0.087188 0.253730 0.804754 -0.253219 -0.610384 0.846659 -0.687801 0.228114 1.241742 0.507169 0.382988 -0.368588 -0.181578 -0.942985 -0.089850 0.312774 0.252809 0.072386 0.495007 -0.507172 0.089491 0.382370 0.657549 0.336926 -0.007036 0.620938 0.389884 0.733098 0.894296 -0.576278 0.690567 0.125237 0.302626 -1.068924 0.416713 -0.257386 0.511704 -0.387950 -0.800881 -0.454319 1.639829 0.751791 0.300476 1.058432 -0.129521 -0.624095 1.005007 0.381261 -0.286641 1.186508 0.711653 1.109531 -0.949284 -0.229057 -0.471634 -0.095702 -0.063786 0.314801 1.184966 -0.357674 0.439753 -0.194930 0.193717 -0.112472 0.326157 0.167724 -0.672914 0.088007 0.245620 0.759082 -0.450200 -0.202798 -0.770872 -0.599624 -0.302441 -0.278363 0.160050 0.363675 0.354897 -0.301943 -0.506440 0.449861 -0.545017 0.747629 -0.346962 0.247248 0.123685 -0.236965 -0.415381 -0.289826 0.169340 -0.133178 -0.483076 0.177597 -0.289835 0.142677 -0.707007 0.397196 0.794020 -0.661016 
9912077 -1.012088 0.049171 -0.050577 1.295920 -0.340490 0.275371 -0.754685 0.206789 1.028916 0.368493 -0.274449 0.125704 -0.145106 0.008026 -0.333763 0.306717 0.283619 -1.000674 -0.473423 0.266559 0.192578 0.496393 0.658527 -0.724770 -0.743939 0.804628 0.304422 0.119533 -0.004687 -0.524781 0.523695 -0.096255 0.236160 0.038420 -0.305900 0.716838 -0.138895 0.446764 -0.611481 0.427590 -0.258525 -0.634934 0.026759 0.114124 -0.695000 0.328390 0.307982 0.144440 0.667461 0.227952 0.845054 -0.210493 0.276239 0.017206 0.780815 -0.375528 0.340074 -0.227253 0.582786 -0.331410 0.628376 0.430866 -0.291528 0.785552 0.262532 -0.615416 0.231294 -0.355875 -0.644577 0.275188 0.444135 0.753453 -0.117118 0.086481 -0.818086 -0.005466 -0.410700 0.236993 -0.845345 0.477691 -0.491418 1.024968 -0.040010 0.627649 -1.220956 1.026271 0.418612 -0.365597 0.334487 0.490670 0.530291 -0.340029 0.853235 0.751911 -0.539711 -0.208495 -0.275989 0.728431 0.303539 -1.759564 
9305032 -1.567684 0.208640 0.244675 0.994613 0.580394 -0.236188 -0.836157 -0.523316 0.390983 0.976248 -0.218696 0.016984 -0.458215 0.042470 0.293290 0.220613 0.300064 -0.402372 -0.595946 -0.056873 0.810808 -0.047667 1.135914 -0.391667 -0.511184 -0.095181 -0.421772 0.477697 0.076260 0.029373 0.612884 -0.666813 0.931136 0.441467 -0.187972 -0.349228 0.875429 0.699105 -0.626528 -0.590507 1.618521 0.289939 0.530805 1.082065 -0.948435 -0.721250 0.042885 1.046236 -0.266530 0.927452 0.403236 0.890242 0.383513 -0.434225 -0.612899 0.420158 0.491432 -0.025656 0.516695 -0.379555 0.490866 0.209770 -0.311175 0.445768 0.322856 -0.339667 -0.496652 0.406891 -0.851227 0.730822 0.163491 -0.208613 -0.450134 0.641469 -0.050712 -0.505685 0.297673 0.683780 -0.199653 -0.216181 -0.420303 0.775462 -0.102291 -0.641387 -0.098828 0.222150 0.462321 0.375319 -0.050809 1.063762 0.021910 0.688853 0.116820 -0.327429 -0.505985 -0.076155 0.350455 -0.073787 0.488255 -0.302247 
0005096 0.004728 -0.001948 -0.001402 -0.000608 0.002726 0.003597 0.002031 0.003589 -0.003924 -0.002120 0.004286 -0.001093 0.002802 -0.000413 0.004926 -0.000951 -0.004848 0.004889 0.003644 -0.004444 0.000803 -0.004300 0.000083 -0.003609 0.002891 -0.000521 -0.002745 0.001233 -0.000514 -0.002557 0.001908 0.000728 0.001867 0.000564 -0.003391 -0.001033 0.003192 -0.004998 -0.000562 0.004273 -0.003426 -0.001903 -0.000286 -0.000383 -0.004457 -0.003442 -0.003776 -0.003205 0.004747 -0.001147 -0.000222 -0.002820 -0.002845 -0.000292 0.001460 -0.002387 0.000411 -0.003020 0.003002 0.001778 0.004224 0.000705 0.003070 -0.001863 -0.001485 0.003620 0.002960 0.001578 -0.002673 0.000109 0.004126 0.003864 -0.004626 0.003482 0.000732 -0.002340 -0.003094 0.003300 0.002806 0.004481 0.001365 0.002331 -0.004287 0.000584 0.001465 -0.002720 -0.003405 0.000820 0.003061 0.000424 -0.000559 0.003072 0.004555 0.000256 -0.004220 -0.002236 -0.002716 0.004553 -0.004489 0.000234 
0005159 -0.007787 -0.008647 0.019759 -0.158673 -0.085550 0.009482 -0.132176 -0.073511 0.039718 0.174512 -0.046782 -0.063604 -0.044422 0.180062 -0.245552 -0.090692 0.168764 0.230202 -0.007935 -0.030272 -0.025276 0.124199 -0.065026 -0.149728 -0.136448 -0.300413 0.082107 0.031173 0.063420 -0.102948 -0.212972 -0.146598 0.133306 0.052274 0.010547 -0.061121 -0.023763 -0.094506 0.085757 -0.138373 0.147051 -0.105345 -0.060440 -0.007451 -0.205754 -0.094829 0.203928 0.004881 0.008252 0.094808 -0.189161 0.091013 0.112481 0.008847 0.164288 0.055619 0.068776 -0.063973 0.119798 -0.094411 -0.095986 0.012787 -0.097610 0.089728 -0.167604 -0.206814 -0.179358 0.199662 -0.113076 -0.025751 0.057374 -0.046524 0.065115 -0.107545 -0.220283 -0.056463 0.058984 0.125594 -0.156266 0.064730 -0.150636 0.170865 0.057305 -0.271449 -0.114700 0.153627 0.171152 -0.103894 -0.013654 0.004516 0.074998 0.020523 -0.103016 0.119167 -0.057517 0.223132 -0.066000 -0.110374 0.159845 -0.059799 
9710153 -0.557810 0.823939 0.454674 0.903061 -0.264166 0.114185 -0.616625 0.257876 -0.024664 0.094816 -0.611257 -0.064286 -0.190781 0.075370 0.401440 -0.125587 0.191809 0.137808 -0.364651 -0.051308 0.177417 0.732294 -0.084118 -0.085627 -0.619942 -0.799399 0.062002 0.338961 -0.095334 0.076567 0.580289 -0.236223 -0.469594 -0.470623 -1.183177 -0.241780 -0.077307 -0.057630 -0.056473 -0.208885 -0.039549 0.612164 0.836680 -0.343557 -0.506153 0.525716 1.034685 0.824181 1.260550 0.839745 0.899573 -0.027522 0.002473 -1.119024 -0.275085 -0.754354 0.295093 1.230709 0.241100 -0.452882 0.130071 0.373419 -0.122834 0.654922 0.686903 -0.572761 -0.732238 0.393959 -1.137627 -0.711427 0.485576 1.389964 0.804964 -0.101875 -0.519822 -0.409428 -0.737129 0.891477 -0.800265 0.213311 -0.591018 0.620316 -0.013646 0.281319 -0.204609 -0.395298 0.315418 0.331954 -0.214327 0.024195 -0.221772 -0.601539 -0.152585 -0.108687 -0.055172 0.614466 -0.219684 0.680964 -0.224900 0.292016 
9801195 0.032796 0.377654 0.314019 -0.691576 -0.193261 0.719366 0.221357 -0.245721 1.070012 0.531859 -0.767385 0.113785 0.021714 0.092680 0.443837 -0.376351 0.421127 0.142795 -0.254618 -0.680359 -0.006424 -1.055202 -0.782030 0.680210 -0.338318 0.880851 0.578165 1.267332 0.779324 0.652870 -0.171312 0.276151 1.337379 -0.056441 0.170158 0.166892 -0.199494 -0.116049 -1.017495 -0.732326 1.017297 0.653383 -0.240024 -0.668680 -0.728159 -0.914050 -0.211919 0.575112 0.024260 0.226638 0.221732 0.101087 -0.176121 0.053163 -0.066083 0.328465 -0.261860 -0.179269 0.584553 -0.674831 0.508027 -0.208255 0.598669 -0.233158 -0.189303 -0.919165 -0.418710 1.168836 0.230568 0.553502 -0.514787 0.264866 -1.217322 0.721913 -0.731732 0.015505 -0.953839 0.959227 -1.464156 -0.048777 -0.737212 0.635354 1.110025 0.601916 -0.175484 0.994912 -0.166279 0.280549 0.599757 0.106018 0.252114 0.118392 0.071090 0.702096 -0.148433 -0.658027 -0.385384 -0.399084 -0.278454 -0.332881 
0005199 0.002699 -0.003188 -0.003993 -0.004858 0.000541 0.002877 -0.002183 0.001266 0.001085 0.003775 0.001718 0.002725 0.002635 0.003275 -0.003839 -0.004101 -0.000886 -0.004695 0.003719 0.000733 -0.001847 -0.004484 0.001302 -0.001042 0.002434 -0.001218 0.002204 0.001534 -0.002607 0.000225 0.003229 0.003802 0.002506 -0.003924 0.002768 -0.002741 -0.000689 -0.003099 0.002166 -0.001152 0.001650 0.002120 0.004881 -0.004412 -0.000761 -0.000941 0.000303 -0.004789 -0.001772 0.004746 0.001106 0.003139 0.003783 0.003091 -0.000449 0.004189 0.000752 0.003575 0.000499 0.003150 0.002172 -0.004969 -0.003730 0.003658 0.001374 0.002995 -0.000398 0.001276 -0.004526 0.003546 -0.003568 -0.003220 0.003220 -0.004593 0.002787 0.001375 0.000563 0.000434 -0.004951 0.004740 -0.003815 -0.001300 0.002674 -0.004209 0.000933 0.001205 0.000194 -0.000278 -0.003162 0.003386 0.002810 -0.003319 0.000263 0.004573 0.004838 -0.003631 0.001599 -0.000988 0.001163 0.000312 
0005253 0.054466 -0.112862 -0.098097 -0.108276 0.167159 -0.355404 -0.009759 -0.083220 0.275011 0.197853 -0.380289 -0.270356 0.166757 -0.036081 -0.075293 0.215429 0.081026 0.023081 0.006863 0.096594 -0.218199 0.050101 -0.239685 -0.097585 0.093398 -0.043252 0.145641 -0.121872 0.143643 0.053658 -0.049546 -0.212728 0.002327 -0.096529 0.055541 0.064373 0.193267 0.108036 -0.282140 -0.048770 0.286863 0.347433 0.155246 -0.043145 -0.029761 -0.069963 0.251629 0.385037 -0.066953 0.115619 0.195542 -0.055571 -0.069128 -0.014331 0.062080 -0.181532 0.152436 0.325523 0.331397 -0.207247 -0.036228 0.001652 -0.241512 -0.112662 0.037094 -0.050538 -0.240212 0.120530 -0.255914 -0.223714 -0.172223 0.091115 -0.231009 0.117317 -0.055220 0.075191 -0.236182 -0.170951 -0.324037 0.058957 -0.314037 0.336125 0.196235 0.051467 -0.169025 -0.039006 0.070720 0.181884 -0.015891 -0.072376 -0.056657 0.034283 -0.098242 -0.000799 -0.072024 0.137357 0.404429 -0.036159 -0.122898 0.142869 
9812013 -0.038964 0.111657 0.750622 0.054397 -0.083815 -0.037481 -1.289108 -0.662969 0.889593 -0.527805 0.025292 -0.534055 0.265214 0.067901 -0.897088 0.530971 -0.000254 -0.106000 -0.077942 -0.176428 -0.061419 -0.548577 0.600301 -0.149167 -0.107757 0.391111 0.120879 0.658365 -0.127206 -1.008863 -0.211132 -0.187511 1.464229 -0.273360 -0.607025 0.611886 -0.213304 0.072768 0.277155 0.857536 0.285437 0.478407 0.447359 -0.033564 -0.552918 0.620085 0.763308 -0.473555 -0.039130 0.983736 0.058092 -0.557697 -0.261322 -0.286943 -0.976889 -0.378460 -0.350278 0.728867 0.466587 -0.645363 0.011908 0.084439 0.506870 -0.385623 0.710627 -0.490463 0.249753 0.057022 -0.558650 -0.521904 0.670934 0.806183 -0.270445 0.748501 -0.268016 -0.381153 -0.609551 0.127607 -1.524715 1.092034 -0.723338 0.949101 0.697197 -0.503939 -0.156827 0.339045 1.161227 0.219393 0.286846 0.406663 0.188553 0.254648 0.121221 0.256744 -0.302828 0.809808 -0.502058 1.357515 -0.182086 -0.603460 
0005266 -0.002167 0.003790 0.001076 0.001477 -0.000821 0.000718 -0.001839 0.002421 0.001855 -0.000503 -0.003427 -0.001643 -0.003504 -0.001075 -0.002048 0.000845 0.004722 -0.000166 0.001961 -0.003284 0.001119 0.003068 0.000698 0.002700 0.004828 -0.002208 -0.004609 -0.000241 0.004290 -0.003451 -0.001033 -0.001286 -0.002432 -0.002282 -0.004559 -0.004381 0.000628 0.004778 0.002865 -0.002440 0.004915 0.002285 -0.001243 -0.001963 0.003052 0.003938 0.002541 -0.004199 -0.003838 -0.002278 0.002844 -0.004041 -0.002497 0.000390 0.001341 -0.003010 -0.002031 0.000818 -0.003560 -0.004549 -0.004267 -0.000387 0.001335 0.004353 -0.001233 0.001594 0.002309 -0.002201 0.003724 0.002926 0.000771 -0.002648 -0.004221 -0.001843 0.001117 0.004537 0.002395 -0.004673 -0.003131 -0.000606 -0.001636 0.002389 -0.004905 -0.002909 0.001205 -0.001382 0.001721 -0.002585 -0.004316 0.001699 -0.003094 -0.004167 -0.000999 -0.000470 0.002525 -0.003569 -0.004808 -0.003320 0.000185 -0.004579 
0005279 -0.377929 0.128201 -0.138632 0.147655 -0.203429 0.041305 -0.195904 0.312888 0.397565 0.383811 -0.206477 -0.257201 -0.279740 0.114514 -0.314294 0.189251 0.387941 -0.175301 -0.186445 -0.041135 0.166754 0.358876 -0.029437 0.060512 -0.217297 0.290298 0.152715 -0.096507 -0.038490 -0.262244 0.349194 0.087999 -0.068206 0.073213 -0.130752 0.112076 0.280085 0.077378 -0.346507 0.208427 0.076086 -0.338379 0.040220 0.086770 -0.293011 0.217660 0.353382 0.069898 0.204465 0.117286 0.167316 0.037003 0.330500 0.159797 0.419411 -0.102808 0.049396 -0.190016 -0.170454 -0.066492 0.361301 0.193870 -0.169223 -0.001642 -0.003136 -0.105179 0.034610 -0.090080 -0.210621 -0.033625 0.186530 -0.007201 0.173648 0.174099 -0.241476 -0.036301 -0.060506 -0.013480 0.187261 0.037776 -0.147588 0.280303 -0.061246 0.154967 -0.335503 0.467382 0.037528 -0.052353 0.034330 0.133399 0.103170 -0.026211 0.200490 0.039892 -0.154699 -0.064156 -0.013080 -0.166872 0.060972 -0.287703 
9912092 0.236040 -0.174933 0.493843 0.578681 -0.922337 -0.700280 -0.853004 -0.341564 1.405110 -0.234026 -1.198052 -0.748873 0.577669 0.194580 0.559398 -0.075681 -0.187969 -0.441722 -0.315876 -0.158986 -0.357419 1.077667 -0.493016 -1.249085 0.198474 0.482871 0.502863 0.461563 0.791017 -0.949059 0.958960 0.222554 0.982112 -0.118601 -0.720243 -0.331821 0.751611 -0.530370 -0.549241 0.351592 0.528576 0.001581 0.971894 -0.147321 0.298232 -0.098513 -0.789431 0.784801 -0.053102 0.921922 -0.532957 0.492229 -0.203271 -0.459551 -0.031597 -0.301458 -0.454626 0.161742 0.831196 -0.256784 -0.107677 -0.134761 0.222712 0.825864 0.413671 -0.483571 -0.729396 -0.296877 -0.247636 0.626175 0.980712 0.496859 0.563358 -0.473584 0.580751 0.665688 -0.120870 -0.080670 -0.504091 0.527770 -0.824485 0.639068 -0.094311 0.413409 -0.543818 0.412248 -0.241070 0.051904 -0.345511 0.594949 -0.011455 -0.057045 0.694937 0.701455 0.261864 0.510079 0.135381 0.904817 0.158742 -0.860020 
9411057 -0.935505 -0.809159 0.033343 0.897229 -0.801759 0.855306 -0.418425 -0.951213 0.046634 0.237328 0.090862 -0.561874 0.305522 0.846038 -0.383830 -0.227422 0.393063 0.057560 -0.147608 0.072805 -0.200592 0.544513 -0.836001 0.723511 -0.561762 0.611895 -0.350963 0.921955 0.194800 -0.080391 0.165604 -0.163951 0.344268 -0.355018 0.005848 1.111888 -0.193262 -0.252228 -0.081489 0.580103 0.062716 -0.003782 0.846798 0.374532 -0.284895 0.211913 -0.143830 0.297041 0.866445 -0.418406 0.654287 1.170479 -0.292878 -0.573712 -0.207407 0.474988 0.438493 -0.090458 -0.272886 -0.346250 -0.307253 0.797419 0.218644 0.233807 0.110700 -1.101008 -0.667298 0.416268 0.155546 0.376637 -0.403142 -0.482619 -0.128861 -0.409660 0.437081 0.376083 -0.424567 0.420181 -0.865009 0.145601 -1.417130 1.327927 -0.346542 0.525318 -0.177784 -1.322432 0.379472 -0.100267 0.130364 -0.147073 0.154785 0.074011 -0.297406 -0.136356 0.081883 -0.096562 -0.957195 1.626198 0.526200 -1.305905 
0006068 -0.004302 -0.003137 -0.001012 0.000684 -0.002958 -0.000669 0.003732 -0.003471 0.001759 0.003481 0.004509 -0.000667 0.000587 -0.000387 -0.004155 -0.003342 0.004982 -0.000948 -0.000855 0.001765 -0.002084 -0.002562 -0.003023 0.001726 -0.002542 0.001267 -0.003510 0.000230 -0.002296 -0.003156 0.003900 -0.003404 -0.001425 -0.002785 -0.004093 -0.004185 -0.004330 -0.002241 -0.000128 -0.000595 -0.000618 -0.004123 -0.000184 -0.001063 -0.003563 -0.001952 -0.002713 0.001198 0.004481 0.004385 -0.002689 -0.002297 -0.002270 0.001032 0.001126 0.004146 -0.004450 -0.000999 -0.000906 -0.000677 0.001602 -0.000038 -0.003773 0.002039 -0.001273 -0.002089 -0.002989 -0.002132 0.003094 0.002943 0.000706 -0.004332 -0.001830 0.002479 -0.004673 -0.000395 -0.002320 -0.001826 0.003865 0.002288 0.003074 0.003571 0.002288 0.001628 0.004125 0.004778 -0.004477 0.002511 -0.001890 0.001016 0.002080 -0.003605 0.002553 -0.001008 0.002581 -0.003660 0.000496 -0.001298 0.003379 0.002827 
0006156 0.007255 0.060726 0.021123 -0.167152 -0.239276 -0.147784 -0.199543 0.256965 0.311862 0.002241 -0.008662 -0.012450 -0.156816 0.199713 -0.166832 0.154414 0.103052 -0.214379 -0.119554 -0.160235 0.036349 -0.133091 -0.207355 -0.084746 -0.227084 0.202099 -0.142195 0.081919 0.054948 0.159772 0.226369 0.122599 -0.000024 0.033442 0.247503 -0.144462 0.039555 0.160910 -0.186699 -0.123888 0.336457 0.065591 0.170920 0.196996 -0.135745 -0.184315 -0.060838 0.137854 0.058500 -0.030247 0.050014 0.263793 0.102289 -0.063349 0.036377 -0.111357 -0.119272 0.314281 0.119712 -0.269517 -0.092338 0.153676 -0.029719 0.168337 0.048729 -0.199684 0.210379 0.120939 0.008027 -0.206520 0.189545 -0.021083 -0.142342 0.112118 0.158200 0.068446 -0.137200 -0.011355 0.128155 -0.272162 -0.029681 0.154249 -0.141694 0.224148 0.024727 0.066425 0.263683 -0.079317 -0.104651 0.190202 0.093119 0.114499 0.178764 0.331895 -0.061930 0.302805 0.042407 -0.243632 -0.103991 -0.131667 
9412229 0.000260 0.000035 -0.001058 -0.004657 -0.003529 0.001884 0.002266 0.001976 -0.000428 -0.004901 0.003177 0.002624 -0.000072 -0.001736 -0.003587 -0.003407 0.002721 0.000814 0.002175 -0.000803 -0.002041 -0.000070 -0.000618 -0.002281 0.004010 0.000529 -0.000590 -0.002101 -0.002976 0.003181 -0.004003 0.003853 -0.004682 -0.002011 -0.004732 -0.003246 -0.000948 0.003959 -0.003676 0.004807 -0.004126 0.002444 -0.003189 -0.003204 -0.003469 0.001222 0.003792 0.000301 -0.002254 -0.003401 0.004861 -0.001715 -0.004633 0.004596 -0.002549 0.002140 -0.004262 -0.002578 -0.003405 0.002488 -0.003740 -0.002824 0.000201 -0.004948 0.002009 -0.003612 -0.003275 -0.000282 0.001804 0.003281 0.001529 -0.001422 0.002872 -0.000357 0.002690 -0.003866 0.002385 -0.004189 -0.002560 -0.000954 0.003186 -0.003432 -0.002728 -0.002298 -0.004671 0.003329 0.002854 0.002611 -0.004989 -0.003764 -0.003637 0.001940 0.004782 -0.001039 -0.004170 -0.002532 -0.004647 0.003601 -0.004120 -0.004726 
9604044 -1.207269 0.855718 -0.236030 0.936451 0.727010 -0.073921 -0.537132 0.418864 0.749324 0.505400 -0.718184 -0.191094 0.173428 -0.120405 -0.756559 0.080225 0.974717 0.342055 -0.619684 -0.622065 -0.420819 -0.699163 0.104533 -0.341750 -0.859238 0.158929 -0.596488 0.411792 0.120316 -0.652204 0.473733 -0.610281 0.074350 -0.233907 0.229768 -0.695164 0.036779 0.591434 0.405367 -0.709711 1.491049 0.543190 0.225435 -0.316541 -1.051640 -0.396939 0.605171 0.431341 0.249677 0.050616 0.727046 1.158616 -0.362475 0.517719 0.393740 -0.893756 -0.618843 -0.188883 0.220272 -0.030787 -0.053161 0.436813 -0.247838 -0.313261 -0.118977 -0.431298 -0.867397 0.120781 -0.577253 -0.262556 -0.184261 0.321381 -0.203294 0.247068 -0.163552 0.070441 -1.230470 0.946235 -0.593971 0.149732 -0.976541 0.633528 0.289710 -0.446583 -0.586431 -0.466085 0.589246 0.405149 -0.208745 -0.266359 -0.072432 -0.377221 0.677285 0.414672 0.558034 0.639394 -0.567865 -0.157860 0.162712 0.792334 
0007022 0.182409 -0.026694 0.130927 -0.159489 -0.124180 0.168488 -0.303529 0.062151 0.101099 0.042741 -0.246380 -0.303770 -0.086679 0.115410 0.004979 0.229225 0.282715 0.096147 -0.214106 0.033262 0.075796 -0.093819 -0.090850 0.110520 0.186329 0.173392 -0.097093 -0.090676 0.089351 0.219500 0.104859 -0.017563 -0.058817 0.077178 0.053570 0.038967 0.043033 0.047001 0.053725 0.051594 0.218627 0.060792 0.192970 0.211883 0.158151 0.073756 -0.067072 0.051064 0.142395 0.145837 0.189656 0.050358 -0.191211 -0.091539 -0.084127 -0.084430 0.154794 0.105193 -0.011503 0.094819 0.078842 0.048066 0.111046 0.033235 0.140456 0.052765 -0.085323 0.087347 0.012180 0.082898 0.191542 0.256075 0.083873 -0.007579 -0.110806 -0.124456 0.077928 0.007217 -0.145406 -0.059115 -0.095273 -0.104522 0.148153 0.032595 -0.003460 0.418341 0.029365 0.106686 -0.117720 0.040440 0.278613 0.112974 0.164208 0.074126 -0.193407 0.212525 -0.161905 0.006323 0.043159 -0.206525 
9907209 -0.372207 0.649761 -0.555577 -0.281874 -0.055907 0.512776 -0.498438 0.163523 0.787876 -0.174660 -0.695022 -0.314158 0.438876 0.186561 0.485179 -0.471154 0.017929 0.599981 0.147839 0.126982 0.443774 0.624808 0.250000 -0.487015 -0.316386 -0.199146 -0.027858 0.783781 0.162424 0.321169 -0.473199 0.534022 0.288247 -0.622252 -0.617046 0.955281 0.213867 -0.653895 -0.134273 -0.115610 0.090737 -0.374844 0.433951 -0.447781 0.077805 0.035471 0.387254 0.265501 -0.023015 -0.244164 -0.593546 0.083309 -0.517830 0.260111 -0.053559 -0.517235 -0.259079 0.560067 0.279563 -0.045350 -0.469737 0.044478 -0.701173 0.839422 1.121582 -0.595243 -0.277785 0.825064 -0.857321 0.050765 0.316621 0.374540 0.219897 -0.362190 -0.375252 -0.726882 -1.139046 -0.161693 -0.529284 0.355593 -0.913296 -0.021951 -0.023321 -0.321185 -1.056542 0.066503 0.523269 0.567654 0.277777 0.796168 0.549140 0.620300 0.877417 0.374534 -1.474074 0.657695 -0.847926 1.242340 0.685486 -1.394107 
0008001 -0.407745 0.010929 0.856063 0.380521 -0.289682 0.833855 -0.525129 0.679018 0.254962 0.632450 -1.098827 -0.227211 0.675076 0.150108 -0.370248 0.128044 -0.365200 -0.527395 -0.394322 -0.043944 0.382711 0.518837 0.549701 0.079312 -0.668396 -0.076292 -0.438393 0.528131 0.718233 0.200887 -0.226355 0.069081 -0.029575 -0.935287 -0.941048 1.226466 0.041755 0.595593 -0.016151 -0.043465 1.429628 -0.216892 0.335013 0.453842 0.383557 -0.348854 -0.409519 0.305799 0.548478 0.163432 0.418353 0.480140 -0.209112 -0.788943 0.502181 0.283593 0.450014 -0.100995 0.795676 0.128656 -0.107203 0.271988 -0.914882 -0.107752 -0.544298 -0.121992 0.088688 0.721555 -0.651789 0.414516 0.249760 -0.093238 0.341717 0.292483 -0.823807 -0.596105 -1.046121 0.164207 -0.724271 -0.100914 -0.933832 0.810874 0.851582 -0.229323 -0.419132 0.183322 -0.481374 0.266939 0.115072 -0.450981 -0.425702 -0.002799 -0.320098 0.564556 -0.451304 0.470366 -0.412443 0.694067 0.728228 -1.154659 
9707176 -0.001511 -0.001055 -0.000678 -0.001707 0.000184 0.000583 0.001506 0.002218 -0.001604 0.001507 0.000331 0.001160 0.004852 -0.001964 -0.004506 0.003773 0.004576 0.003107 0.000755 -0.002854 0.000402 -0.002872 -0.002864 0.002922 -0.004414 -0.003774 -0.002185 -0.003603 -0.000030 0.004408 -0.002039 0.000902 0.004468 -0.003070 0.002807 -0.001962 -0.003876 0.002473 -0.004117 -0.004573 0.003274 0.000397 -0.004954 -0.002531 -0.000223 -0.004167 -0.002531 -0.000462 -0.002037 0.004371 0.001921 0.001890 -0.001064 -0.002145 0.002191 -0.004444 -0.002219 0.000333 -0.002019 -0.003959 -0.004582 -0.004312 0.001811 -0.001993 0.004400 -0.003145 -0.002040 0.004814 0.003486 -0.003334 0.003601 0.004478 -0.000736 0.003031 -0.003594 0.002620 0.003061 0.001549 0.003599 0.000324 0.000782 0.003489 0.003059 -0.003062 0.000840 0.000565 -0.001277 0.004685 -0.003325 0.000412 0.001077 -0.003373 0.000958 0.003201 -0.004477 0.002602 0.003968 0.003157 -0.004559 0.002343 
0010063 0.022789 0.104423 0.079556 -0.062373 0.016017 -0.056539 -0.115380 0.091835 0.276205 0.089510 -0.141391 -0.202786 -0.023264 -0.083068 0.118726 -0.124729 -0.004786 -0.030108 0.164098 -0.171541 -0.090323 0.174096 0.085938 -0.287197 -0.073715 0.067649 -0.034394 0.177026 -0.084605 0.050092 -0.020129 -0.062256 0.181879 -0.016040 0.121205 0.132066 0.030868 0.013902 -0.227366 -0.090759 0.031562 0.194434 0.084834 0.048452 -0.107180 -0.040922 0.062333 0.143083 0.012678 -0.001347 0.172636 0.055961 -0.031353 0.030339 -0.027827 0.058959 0.134119 0.012866 0.257566 -0.123770 0.008903 -0.101266 -0.130689 0.032693 0.164753 -0.105315 -0.008517 0.135744 -0.135948 0.127499 -0.147304 -0.052697 0.066294 0.043933 -0.252834 0.008241 -0.142269 0.224885 0.062229 -0.013186 -0.157168 0.105891 -0.003976 0.018753 -0.257109 0.255512 0.082160 -0.052397 -0.153382 -0.071675 0.123049 0.012217 0.210876 0.064285 -0.053777 -0.036432 -0.095115 0.043933 0.187838 0.115276 
0011081 -0.004800 0.003689 0.001748 -0.004793 0.000900 -0.001023 0.002948 0.001461 0.004110 -0.004216 -0.002508 0.000557 -0.003149 -0.000387 -0.000989 -0.001152 -0.001947 -0.002204 -0.003415 -0.001857 0.001335 0.003510 -0.004813 0.004541 0.001394 0.003249 -0.000995 0.000610 -0.003462 -0.002895 0.002704 0.003726 0.002516 0.001447 -0.004981 -0.003833 0.003046 -0.002998 -0.004814 -0.002738 -0.003513 -0.000441 0.002409 -0.003880 -0.002863 0.000219 0.001967 -0.000196 -0.003737 0.000518 0.001643 0.002575 0.004449 -0.001571 -0.002124 -0.003494 -0.003175 0.000397 -0.003304 -0.003746 0.002007 -0.001903 0.001278 0.004399 0.001734 -0.002231 0.004609 0.000841 0.001353 -0.002083 0.003615 -0.004758 -0.004122 0.003639 0.000968 -0.004923 0.004955 -0.003147 0.001691 0.003615 0.000615 0.004696 -0.004842 -0.003045 -0.000573 -0.002995 0.002924 -0.001715 0.003185 0.003915 0.002254 0.003520 -0.003028 0.002301 -0.000810 0.002241 -0.001157 -0.000875 -0.002974 0.001208 
0011118 0.292567 -0.036305 0.184418 -0.188946 -0.176259 0.260880 -0.434801 0.112225 0.163971 0.055598 -0.389799 -0.390271 -0.155611 0.140645 0.005890 0.327962 0.381466 0.188380 -0.278174 0.023369 0.119503 -0.097836 -0.132519 0.124787 0.236518 0.275549 -0.108876 -0.107610 0.135876 0.287138 0.215245 -0.027363 -0.056621 0.110123 0.039816 0.069266 0.066833 0.069729 0.061165 0.066454 0.287317 0.092630 0.234146 0.304035 0.227482 0.069839 -0.084472 0.040602 0.182753 0.165933 0.285156 0.034224 -0.243585 -0.048717 -0.147227 -0.141968 0.243386 0.133482 -0.018357 0.156502 0.137065 0.028389 0.195078 0.021375 0.175065 0.147876 -0.071619 0.077577 0.031421 0.085903 0.324889 0.391067 0.094206 0.026042 -0.144932 -0.185685 0.110428 -0.079711 -0.175697 -0.103871 -0.068521 -0.137810 0.180310 0.006269 -0.038592 0.606530 0.064728 0.130798 -0.197496 0.083022 0.432018 0.193119 0.217696 0.131081 -0.309912 0.356032 -0.242322 0.005935 0.043571 -0.360426 
9311092 -0.061880 0.033489 0.008918 0.036148 -0.052927 0.061214 -0.100463 0.003397 0.062625 0.068052 -0.063781 -0.050360 0.000340 0.068353 -0.032357 0.023764 0.018514 0.038557 -0.068911 -0.022506 0.012853 0.047441 0.007318 -0.055289 0.049524 0.042903 0.015557 -0.048312 0.014916 0.023776 -0.035000 0.018335 -0.054036 0.050640 0.057149 -0.076521 0.057322 0.047557 -0.005523 -0.102181 0.108672 0.057948 0.053059 0.064403 -0.069185 -0.014461 0.036526 0.080342 0.048014 0.069926 0.038973 0.053734 -0.012310 -0.028103 0.013255 -0.014841 -0.020422 0.083976 0.088899 -0.078357 -0.002331 -0.076869 -0.074639 0.064520 0.003669 -0.095173 -0.076304 0.071481 -0.027259 0.016527 0.009441 0.072486 0.063867 -0.014506 -0.067188 -0.024514 -0.083154 0.111108 -0.069280 0.092215 -0.129477 0.077744 0.030522 0.013593 -0.079551 0.073825 0.074950 0.014166 -0.031113 0.042769 0.063697 0.008684 0.033595 0.099613 -0.083535 0.082677 -0.078680 0.114630 0.063699 -0.092679 
0012172 -0.054492 0.024439 0.017831 0.025727 -0.051682 0.051594 -0.071702 -0.025963 0.061945 0.081972 -0.064524 -0.050179 -0.011134 0.092114 -0.053435 0.036401 0.042112 0.066981 -0.074470 -0.016633 0.016911 0.017716 0.009925 -0.029805 0.034840 0.004625 0.014382 -0.069568 -0.002728 0.021455 -0.030516 0.016811 -0.048170 0.050853 0.061829 -0.060841 0.064644 0.060654 -0.017056 -0.090431 0.112570 0.048131 0.007473 0.045367 -0.085302 -0.005529 0.039313 0.078531 0.041437 0.095819 -0.003128 0.038257 -0.014422 -0.047671 -0.012906 -0.017739 -0.023056 0.045809 0.057843 -0.044908 0.009289 -0.068397 -0.081439 0.050982 0.011892 -0.074298 -0.045961 0.051601 -0.009631 0.000641 0.006955 -0.006299 0.056294 0.003829 -0.054123 -0.024555 -0.053736 0.116334 -0.073767 0.112818 -0.079390 0.051004 0.019736 0.018203 -0.055830 0.086053 0.041749 0.023679 -0.034344 0.032251 0.063850 0.012921 0.070761 0.093544 -0.104297 0.094143 -0.074905 0.120113 0.065301 -0.080675 
0012182 0.320024 0.000800 0.239860 -0.373363 -0.084471 0.343825 -0.287589 0.228449 0.218188 0.035985 -0.311833 -0.407506 -0.328440 0.086046 0.208934 0.166620 0.102944 0.151431 0.175368 0.238407 -0.079072 -0.369916 -0.478120 0.550421 0.227213 0.381411 -0.314168 -0.000195 -0.005990 -0.043064 0.147928 -0.329071 0.165312 0.054475 -0.103359 0.068973 0.284990 0.296490 0.193458 0.222817 0.734081 -0.057279 0.397446 0.264722 0.078033 -0.063533 -0.237487 -0.061378 0.054406 0.297693 0.397876 -0.125700 -0.150648 0.046300 -0.080913 -0.313052 -0.031460 0.287924 0.135534 0.144726 0.287562 -0.033159 0.149850 0.354500 0.067694 0.141899 -0.021835 0.154514 0.352883 0.166167 0.423858 0.104410 -0.013893 0.035485 -0.365581 -0.424796 0.123866 -0.012234 0.199712 -0.246330 0.001709 -0.182807 0.290910 -0.028669 -0.063426 0.624306 -0.036666 0.069193 -0.224383 0.175520 0.862416 0.335716 0.373042 0.316780 -0.486856 0.360439 -0.321928 0.236528 -0.032003 -0.329351 
9706217 0.004022 0.004266 -0.002539 -0.002451 0.002438 0.002108 0.004691 0.001480 0.002494 0.000861 -0.003921 -0.004778 0.003040 -0.001201 0.002839 0.001484 0.002546 -0.002682 0.003083 0.000434 0.002284 0.002526 -0.002502 0.004653 -0.003437 0.003322 0.004689 -0.003091 0.003928 -0.001255 -0.002443 0.001176 -0.001675 -0.004384 0.002116 0.001878 -0.003133 0.001466 -0.004694 0.001129 -0.002613 -0.001876 0.004378 0.001569 -0.004431 0.000768 0.000157 -0.001088 0.004613 -0.003676 0.001955 -0.001020 -0.001285 -0.001993 -0.003348 -0.003311 -0.003750 -0.001872 -0.002927 0.000971 -0.002008 0.000599 -0.003184 0.004999 0.002519 -0.004548 0.002344 0.001912 0.002248 0.001166 -0.004101 0.003351 0.002156 -0.002207 -0.000324 -0.004954 -0.003907 0.000475 0.004515 0.001699 -0.004725 0.004109 -0.002160 0.001830 0.002243 -0.000819 0.004784 0.003773 0.004225 -0.004490 0.002377 0.001663 -0.002312 0.004578 -0.000629 0.002655 -0.001104 0.000172 -0.000441 0.000425 
9905165 -0.591577 0.524695 0.335302 0.977093 0.089268 0.298064 -0.666817 -0.640972 -0.041022 -0.413837 -0.370252 -0.622966 0.276204 -0.284921 -0.003484 -0.389089 -0.187950 0.244002 -0.395207 -0.165343 0.377914 1.005278 0.566337 -1.031527 -0.805449 -0.289808 -0.562811 0.240758 -0.277559 -0.267342 0.364289 0.308286 0.130313 -0.818121 0.153009 0.243265 0.789388 0.700798 0.542498 -0.271551 0.923406 0.875392 -0.195853 0.730034 0.051869 0.344005 0.744062 1.255077 0.648365 1.284691 0.461567 0.913175 0.075111 -0.539599 -0.106625 -0.482253 -0.071512 0.133575 0.321899 0.052315 -0.350400 -0.621857 -0.706039 0.747332 -0.072140 -1.286867 -0.685153 0.639889 -1.286077 -0.072188 0.731829 0.351214 -0.326207 0.086690 -0.656767 -0.074296 0.252881 -0.112867 -1.099933 -0.192919 -0.283600 0.305538 0.843365 0.275491 -0.125116 0.123177 -0.465762 0.172634 0.153045 0.882549 0.668769 0.469981 -0.122385 0.463044 -0.342054 -0.436536 -0.556529 0.413972 1.035789 -0.534315 
0101113 -0.002333 0.004334 -0.001988 -0.001001 -0.004846 0.000592 -0.001381 0.000221 -0.004284 0.003959 -0.004495 -0.001453 0.002110 0.001373 0.000881 -0.003914 -0.003545 0.004429 -0.000945 -0.003513 0.004606 0.003834 -0.004947 0.000097 0.003972 -0.004319 0.004111 0.000304 0.000787 -0.001377 -0.003092 0.001043 -0.001165 -0.001673 0.003961 -0.001769 -0.002805 -0.004510 -0.003608 -0.000067 -0.003632 -0.004131 -0.004132 0.003213 -0.004774 -0.001414 -0.004249 -0.003543 0.000488 -0.003878 0.004932 -0.004727 0.003340 -0.004631 -0.003569 -0.003116 0.003507 -0.000972 -0.001433 -0.003122 -0.002032 -0.000204 0.001110 0.002140 -0.002196 0.004037 -0.002922 0.003486 -0.002498 0.003953 0.000831 0.004118 0.003554 0.004422 -0.002977 0.001855 -0.004643 -0.000195 -0.004848 0.000697 -0.000271 0.003890 -0.002637 -0.002721 -0.002216 -0.002289 -0.000881 0.001285 -0.004841 -0.001754 -0.002329 -0.000058 0.001429 0.003567 0.003724 -0.004215 0.004840 0.004894 0.004717 -0.002386 
0101219 -0.709263 -0.059466 -0.282312 0.328984 -0.135120 -0.588099 -0.567983 -0.236037 0.378138 -0.440071 -1.044093 0.474385 -0.423331 -0.031817 -0.194524 -0.281862 -0.425764 0.253321 -0.172015 -0.739267 0.548921 1.025398 -0.018052 -1.251090 0.238333 0.005714 -0.346593 0.253980 0.450406 0.178853 0.120699 -0.366025 0.333540 0.304640 0.015174 -0.038362 0.226099 0.545337 -0.276899 -0.496793 0.389955 0.858807 0.351000 0.269112 -0.565543 -0.397161 0.716192 0.910137 0.524927 0.666300 0.811782 0.785349 0.002995 0.143165 -0.337273 -0.223904 0.452473 0.370659 -0.003143 -0.186812 0.067580 -0.740762 -0.580518 0.440216 -0.162905 0.007730 -0.217173 0.004803 0.042867 0.248626 0.459477 0.575635 -0.550448 0.738180 0.024497 0.477886 -0.580126 -0.439679 0.213817 -0.444634 -0.514195 0.958439 -0.126587 -0.157573 -0.476288 0.056091 1.018711 -0.222372 0.277750 -0.090985 -0.080774 0.132885 0.046170 -0.179549 -0.025080 0.361828 -0.199767 0.002854 -0.646979 -0.654570 
9710009 -0.349960 0.531473 0.404670 0.437781 0.527843 -0.010742 -0.297314 0.567547 0.379922 0.829744 0.274283 -0.671973 0.280969 -0.365218 -0.130909 0.286251 -0.765852 -0.123319 -0.146819 -0.506758 0.141763 0.647007 -0.593593 -0.215190 -0.953101 0.030386 -0.556243 0.624092 1.450517 0.084019 0.244489 -0.615460 0.113173 0.069250 -0.346748 -0.471664 0.031132 0.541451 0.082966 -0.758217 1.164033 1.046126 0.476973 0.092518 -0.822175 0.349220 0.076337 0.464705 0.324549 0.026695 -0.100779 0.703020 -0.436814 -0.988255 -0.132678 0.100653 -0.371340 0.728108 1.389414 -0.993241 -0.537771 0.245219 -0.236879 0.695028 0.674278 -1.021688 -0.900600 1.072640 0.722330 0.760816 0.211079 0.211684 -0.691875 0.007886 -0.371156 -0.238011 -0.437009 0.002289 -0.627975 0.254760 -0.362866 -0.118250 -0.262872 0.117130 -0.038573 0.164786 0.488303 0.342528 0.143294 -0.735281 -0.366099 0.381903 -0.195749 -0.122286 0.356102 -0.193310 -0.637608 1.026763 -0.307508 -0.105145 
9505100 0.692653 1.127675 -0.332031 0.748917 0.565296 0.253832 -0.119901 -0.037838 0.970174 0.674433 -0.098315 -0.404769 0.063082 -0.411561 -0.316073 0.797152 0.144654 0.851732 -0.074380 0.405724 0.118952 -0.046155 0.272903 -0.030916 -0.437766 -0.074794 -0.272574 0.861907 -0.381881 0.402129 0.889003 -0.343056 0.682108 -0.769071 -0.505510 0.288530 -0.415615 -0.294810 0.045663 -1.401481 0.293333 -0.158909 0.629542 0.456959 -0.602818 -0.497501 -0.508408 -0.281143 -0.034162 0.243258 0.258289 0.950411 0.474696 0.536217 -0.337400 -0.230030 -0.061341 0.546831 0.668375 -0.522674 -0.301796 -0.126310 -0.568141 -0.009029 1.295626 -0.575126 -0.122332 0.662270 -1.124464 0.885318 -0.187769 1.957970 0.974157 0.495635 0.368380 0.026336 -0.040653 0.988453 -0.520602 0.710466 -0.704110 0.550628 0.651399 0.089792 0.255172 0.573395 -0.008475 0.320122 -0.573845 -0.030430 0.150500 0.258039 -0.310819 -0.505336 -0.563824 -0.010768 -0.119940 0.679515 0.614594 -0.361851 
0102033 -0.402641 -0.056828 0.583396 0.112666 0.374407 0.035470 0.123070 -0.563731 0.356632 0.389785 0.166032 0.037776 0.025604 0.586886 0.045003 0.297704 -0.329573 0.599268 0.696667 -0.113998 0.343346 -0.044770 0.450608 -0.748179 -0.148215 0.003858 0.103940 0.233627 0.402525 0.318379 0.327377 -0.057296 0.081387 -0.237519 -0.281963 0.301208 0.945548 0.156363 0.050957 -0.777703 0.389933 0.600814 -0.068408 0.113691 -0.398069 -0.604497 0.582327 0.367007 -0.308622 0.272606 0.032965 0.430095 0.017762 0.008415 0.563694 -0.143341 0.315833 -0.265087 0.242878 -0.290342 0.028123 0.094154 -0.123737 -0.273849 -0.081984 -0.414257 0.519628 -0.528060 -0.600568 -0.035250 -0.146898 0.556002 -0.232040 -0.380380 -0.018459 0.345221 0.097590 -0.198142 -0.059043 0.510220 -0.341494 -0.189701 0.021293 0.306470 -0.074560 0.630029 0.481589 0.626062 -0.364744 0.464341 0.631853 0.134766 0.487107 0.042869 -0.651793 0.500544 -0.478417 0.685650 0.003375 -0.332634 
9202057 -0.586615 0.784238 -0.108179 0.281090 0.747886 -0.188499 -0.485976 -0.649741 0.486556 -0.113434 -0.582603 -0.273235 -0.132877 0.282732 0.373802 0.520841 0.091233 0.007071 0.288959 -0.085773 0.169353 0.950831 0.607047 -0.720073 -0.557846 -0.371175 0.157977 0.319603 0.767637 -0.555014 -0.219509 0.075705 0.079842 -0.563661 0.161002 0.026512 -0.304909 -0.486521 -0.152960 -1.113291 0.668173 1.035435 0.696093 0.247156 -0.762027 0.534967 0.768583 0.478145 -0.266617 0.522993 0.430664 0.919654 0.513862 -0.349841 -0.561235 -0.119133 -0.687282 0.133402 0.369735 -0.808957 -0.503100 0.351739 -0.902138 0.980708 0.288888 -0.558322 -1.029704 0.256819 -0.003938 -0.344981 -0.274354 0.867290 0.334605 0.268241 -0.114796 0.142323 0.421229 0.398573 0.400582 -0.267358 -1.089360 0.283076 -0.197945 0.086193 -0.773167 0.681160 -0.478959 0.201836 0.067160 0.985882 -0.062224 0.511221 1.001680 0.775791 0.265348 0.412609 -0.522968 0.359241 -0.123080 -0.772695 
0102039 -0.720244 0.793072 0.945874 0.321320 -0.976003 0.642939 -0.330746 -0.656350 1.561412 0.349476 -0.355195 -0.701833 -0.448111 0.771145 -0.386228 0.328923 -0.369676 -0.179461 0.014189 -0.407388 0.481843 0.787670 -0.085133 -1.656155 0.266655 0.102379 0.186610 1.074910 0.416025 -0.070292 0.481057 0.768044 0.072954 -0.122252 -0.278186 -0.031881 0.096625 1.067996 -1.004722 -0.442573 0.859544 0.249825 0.207152 -0.345467 -1.072447 -0.389855 -0.235863 0.518286 0.464798 1.532913 0.880467 1.022382 0.204252 0.138648 0.163705 -0.434408 -0.211813 -0.063600 0.246786 -0.355298 -0.497997 0.040753 -0.247511 -0.514662 0.652351 -0.873080 -0.297956 0.139456 -0.616356 0.666931 -0.548196 0.839078 -0.160076 -0.133145 -0.040580 0.432619 -0.582910 -0.178273 0.185799 0.849277 -0.384820 -0.158837 0.545282 -0.424223 -0.964475 0.660173 0.492557 -0.410378 0.607902 -0.172476 0.261986 -0.177712 0.264708 0.445448 0.434610 -0.064878 -0.192006 0.361105 0.609411 -0.719147 
0102084 -0.586175 0.030029 -0.051961 -0.109590 -0.203848 -0.540480 0.838817 0.749376 0.031908 -0.033432 -0.131682 0.094095 -0.081777 -0.724551 -0.150677 0.252568 0.908071 -0.477971 -0.578933 -0.366096 0.072354 0.143309 -0.099833 -0.233706 -0.911640 0.241714 0.087652 0.087473 -1.144584 0.062500 0.609675 0.354388 0.028304 -0.311425 -0.266796 0.219830 -0.338366 -0.106096 -0.663159 -0.090563 0.935058 0.753745 0.771538 -0.308146 -0.827043 -0.589959 0.160073 1.177354 0.205617 0.990394 0.972589 0.331797 0.358764 0.449605 -0.361633 0.406945 -0.370881 0.430797 0.081645 -0.639481 0.342534 -0.147198 -0.720237 0.791439 0.584523 -0.223898 -0.889961 0.825649 -0.480842 0.387059 0.180476 0.862982 -0.389661 -0.948868 -0.477084 0.505863 -0.045363 1.428883 -0.421317 0.231549 -0.837499 1.136562 0.220760 0.066879 -0.265192 0.110044 0.324480 -0.073704 0.254585 0.647804 0.199588 -0.100606 0.326438 0.469168 -0.258381 -0.160816 -0.835680 -0.315887 0.498607 -0.064267 
0102182 0.158735 -0.220720 -0.198889 -0.250844 0.334895 -0.708248 -0.045083 -0.305637 0.642186 0.541337 -0.803491 -0.665048 0.408064 0.108579 -0.261094 0.573388 0.090884 0.165818 -0.047901 0.186868 -0.432835 0.169846 -0.549426 -0.157841 0.173524 -0.074740 0.433642 -0.323138 0.379364 0.126588 -0.189142 -0.459231 0.116640 -0.168850 0.095679 0.091344 0.301009 0.059717 -0.552566 -0.077028 0.549341 0.828745 0.341225 -0.068823 -0.074373 -0.116669 0.478830 0.813625 -0.179765 0.229035 0.363668 -0.192332 -0.210944 -0.182407 0.024031 -0.335053 0.359741 0.644806 0.671435 -0.437846 -0.132428 0.014233 -0.542256 -0.209558 0.083337 -0.132333 -0.449024 0.250738 -0.617265 -0.609063 -0.476548 0.245106 -0.415736 0.281005 -0.153779 0.055945 -0.349581 -0.391911 -0.756823 0.237942 -0.571867 0.698029 0.348596 0.189212 -0.408385 -0.116244 0.078355 0.451289 -0.208930 -0.054629 -0.119216 0.013206 -0.112482 0.154068 -0.195418 0.529638 0.787838 0.113192 -0.085739 0.153638 
9810147 0.389926 0.315646 0.058800 -0.049857 0.226772 -0.538909 -0.097500 -0.167490 0.557793 0.272498 -0.268527 -0.353266 -0.350150 0.206477 0.348851 0.012162 0.232461 -0.126552 0.030495 0.141081 0.104857 0.738842 0.517433 -1.078182 0.082607 0.328342 0.249590 0.914266 0.712007 0.481541 0.011182 -0.467219 -0.113014 -0.429875 -0.106730 -0.351203 0.538014 0.302370 -0.885294 -0.360867 0.262440 -0.051600 0.524952 -0.254052 -0.249216 0.060043 0.535314 0.626848 0.150040 0.248220 0.423919 0.301486 0.006837 0.355318 -0.045676 -0.283377 0.030302 0.464009 0.295916 -0.437280 -0.089154 0.640872 -0.205688 0.339003 0.534594 -0.465992 -0.312065 0.049857 -0.772806 -0.138630 0.071284 0.285622 -0.014850 -0.129180 0.126845 0.344376 -0.522824 0.144112 -0.560284 -0.184688 -0.324584 0.618657 0.416763 -0.091668 -0.531722 0.564918 0.561834 0.134580 -0.135991 0.705116 0.517853 0.145011 0.669098 0.589088 -0.469598 0.272795 -0.117537 -0.020000 -0.389479 -0.469683 
0102188 0.158979 -0.160413 -0.141942 0.053256 -0.109462 -0.316120 -0.503360 0.177324 0.734475 0.402321 -0.538926 -0.241615 0.534439 -0.352463 -0.000224 0.291331 -0.100163 -0.195866 -0.300474 -0.248219 0.220501 0.559907 0.375876 -0.963169 -0.049296 0.252233 -0.138966 0.120039 0.446951 0.408460 0.041999 0.058965 0.114182 -0.371157 0.199877 -0.029386 -0.231166 0.002390 -0.022950 0.625357 -0.383531 0.223660 0.462330 -0.071215 0.200163 -0.449962 0.506667 -0.140160 0.015251 0.015779 0.763676 -0.230019 0.110377 -0.177255 0.643243 -0.084190 -0.473485 0.291225 0.157924 -0.260651 -0.052175 0.386822 -0.149850 -0.024711 0.396078 -0.270052 -0.073672 0.439197 -0.367394 0.349379 -0.090343 0.663721 0.349669 0.181317 -0.044574 0.030272 0.042811 0.016998 -0.129072 0.062148 -0.020260 0.226722 0.049969 -0.478095 -0.758437 1.224576 0.693885 0.517571 -0.140790 0.333322 0.347655 0.081772 0.617687 0.231175 -0.722157 0.650571 -0.793277 1.214720 0.763776 -0.935121 
9612194 -0.166947 0.754408 0.637409 -0.575306 0.309190 0.260715 -0.218064 -0.250509 1.514511 0.412292 0.270082 -0.037327 -0.337058 -0.088500 0.395860 0.204397 0.520145 -0.443958 -0.939864 -0.839380 0.849632 0.155196 0.004368 -0.191065 0.266024 0.780572 -0.272201 0.848721 0.021412 0.215956 -0.091549 0.201998 0.088936 -0.215261 -0.168994 0.787898 -0.332439 -0.053925 0.501509 -0.216243 1.525910 0.034516 1.274875 0.510547 -0.376407 -0.520747 -0.230194 0.265606 0.560265 0.687251 -0.573999 0.895630 -0.725973 0.937464 -0.439806 0.359583 -0.510463 0.818003 1.709347 -1.292556 0.310955 -0.290687 -0.839237 0.785454 0.263822 -0.430768 -0.947184 0.255045 -0.291179 0.654211 0.936482 0.227370 0.192194 -0.504443 0.421535 -0.601149 -0.619675 -0.145550 -1.007344 0.288805 -0.721233 1.101512 -0.580935 0.409326 -0.305613 0.388153 -0.252232 -0.116383 0.378558 -0.024700 0.256938 -0.444726 0.928452 -0.133818 -0.045468 -0.561464 0.110050 -0.112546 -0.097035 -0.016589 
0103086 -0.057854 0.217868 0.192673 0.131801 0.033699 -0.406574 -0.118033 0.036779 0.230671 -0.028496 0.245572 0.175042 0.417189 -0.306927 0.021199 -0.202744 -0.152514 0.091791 -0.159279 0.041258 0.621878 1.294271 1.140106 -1.579029 0.040441 0.024486 0.026470 0.180474 0.388366 0.221778 -0.084998 -0.086416 -0.043413 -0.287856 -0.059828 -0.055215 0.085650 0.473655 -0.162604 0.071097 0.593045 0.047683 0.381482 -0.211002 0.156264 -0.037229 0.314243 0.317347 0.484653 0.577406 0.284627 0.496444 -0.016052 -0.518486 0.081694 -0.353243 -0.156112 0.657931 0.632701 -0.480682 0.069611 0.197046 -0.502742 0.525348 0.244864 -0.594519 -0.364536 0.178568 -0.317851 -0.145596 0.045624 0.269325 -0.063648 -0.145878 0.127556 -0.053106 -0.122413 0.040329 -0.217057 -0.157213 -0.119253 0.189284 -0.085009 0.031322 -0.094462 0.108413 0.219492 0.254906 -0.292141 0.603410 0.821717 -0.043951 0.422940 1.024484 -0.751558 0.711142 -0.489123 0.341750 0.164260 -0.972921 
0102006 0.002385 0.001378 0.003086 0.002492 0.000678 0.004964 -0.004301 0.001345 -0.002860 -0.000837 -0.003804 -0.002791 -0.004183 0.001784 0.004418 -0.002139 0.000516 -0.004034 0.001703 -0.001806 0.002890 -0.001579 -0.000966 -0.004859 0.002215 -0.003834 0.000034 0.001253 -0.002716 0.001530 0.003320 0.004872 0.003716 0.004861 0.002015 -0.003269 -0.003614 0.002679 0.004929 0.002417 -0.002903 0.004663 -0.000135 0.003993 -0.002192 0.000742 -0.001040 0.000320 -0.001336 -0.001843 -0.004597 0.004877 0.002278 0.003274 0.003583 -0.000330 0.001665 -0.004430 -0.001576 -0.003949 -0.002774 0.000691 0.000434 0.001539 -0.003185 0.003014 -0.001550 -0.003798 0.002320 0.003280 -0.000119 -0.004091 0.003291 -0.004012 0.004509 -0.002379 -0.004038 0.000646 0.002448 0.003109 0.004860 0.003360 -0.000892 0.000743 0.004713 -0.004294 0.000978 0.001754 -0.004222 -0.004701 -0.000349 -0.001000 0.002012 0.004610 0.003577 0.000049 -0.004441 0.003895 0.001063 0.001353 
9309140 0.313519 0.601005 0.217581 -0.435343 0.294492 -0.017930 0.547327 -0.360865 0.583962 0.158615 0.576528 0.078784 0.341658 -0.228430 -0.281213 0.008687 0.434546 0.739606 -0.443966 0.097732 0.141175 -0.115240 0.376011 -0.724248 0.629957 -0.197547 1.103397 1.116409 0.404553 -0.189287 -0.017644 0.664603 0.817416 -1.160092 0.271389 1.011428 0.387894 0.936264 -0.660675 -0.211182 1.548018 0.206598 0.694553 -0.397391 -1.419446 0.417845 -0.201410 1.220321 -0.133038 -0.365302 0.924286 1.634294 -0.317994 -1.390191 -0.018602 -0.265204 0.719637 0.155671 0.314808 -0.436111 0.695381 0.306869 0.169600 0.545506 0.647067 -0.979693 -0.442080 0.114797 -0.759647 -0.175058 0.574037 -0.774331 0.504101 1.102570 -0.632540 -0.608865 0.274985 -0.363251 -0.163698 0.129841 -0.723409 0.698254 0.224387 0.086270 0.299997 0.647744 0.223477 0.300648 -0.327372 0.034643 0.051544 -0.178087 0.542551 0.187902 0.782328 0.708741 0.125263 0.878499 -0.508087 -0.449070 
9602060 0.446236 0.326624 -0.206419 0.246799 -0.747135 0.122088 -0.450681 -0.570157 -0.005060 -0.728735 -0.142535 0.866881 -0.107243 0.188005 -0.515110 0.155367 -0.440956 0.618447 0.818389 -0.127079 0.182869 -0.034305 -0.517437 0.338687 0.309577 0.672257 -0.094872 0.801107 -0.548026 -1.003522 0.102542 0.147387 0.700933 -0.056076 -0.580014 -0.193027 1.269606 1.170632 0.479313 -1.160927 2.107073 0.475528 1.241394 0.351574 -0.364525 -0.799921 0.362086 -0.047405 0.639711 0.412307 0.643435 -0.040889 -0.182153 -0.359748 0.203404 -0.658579 -0.221482 1.519015 0.786085 -0.647716 0.297917 -0.727657 -1.199486 0.926441 -0.008294 -0.137329 -1.284536 0.638266 0.476334 0.909119 0.904399 0.406501 -0.474941 -0.155640 -0.023768 -0.036059 0.220474 -0.274037 -0.464166 -0.084124 -0.325584 0.399252 0.206308 0.244413 -0.069394 0.693824 -0.260726 0.164200 0.494688 0.369189 0.641573 0.684291 -0.300367 0.430684 -0.491811 0.100987 -0.182740 0.092013 -0.774397 -0.655548 
0103101 0.001879 0.002949 -0.003246 0.003046 -0.000949 -0.000227 -0.003747 0.003877 0.002298 0.004718 -0.004101 0.004752 -0.003787 -0.002064 0.004376 -0.001290 0.004020 -0.003409 0.001442 -0.001761 0.002819 -0.004268 -0.001577 0.004143 0.003771 -0.003842 -0.003145 0.004201 0.000729 0.002113 0.002343 0.002932 -0.004051 0.000689 -0.001636 0.002368 -0.000860 -0.002999 -0.001369 -0.003380 -0.004344 0.003472 -0.003069 0.004463 0.000224 0.001892 -0.003900 0.001655 0.004325 0.002102 0.001802 0.004062 0.000555 0.001605 0.000486 0.002240 -0.003730 0.000764 -0.001137 0.001771 0.001114 0.000066 0.000864 -0.002712 0.000985 0.002688 -0.002985 0.001588 -0.001231 0.004580 -0.003105 0.002973 0.003326 -0.004050 -0.000810 -0.000194 -0.002948 -0.004022 -0.004125 0.003582 -0.004505 0.003069 0.004863 0.001691 0.003927 -0.003853 0.000868 0.002581 -0.003544 0.002571 -0.003110 0.004900 -0.001346 0.003038 -0.001114 -0.003004 -0.003885 -0.003339 0.000453 -0.000812 
0103112 -0.281244 0.281737 0.176006 0.181430 0.384679 -0.044471 -0.276632 0.300229 0.188920 0.532206 0.165979 -0.519497 0.213542 -0.342072 -0.044371 0.255011 -0.684391 -0.059098 -0.112349 -0.300704 0.169440 0.724011 -0.127743 -0.394175 -0.476402 0.057026 -0.143518 -0.182558 0.848834 0.337967 0.004886 -0.249997 -0.219754 0.441244 0.028229 -0.637424 0.161581 0.471946 0.264881 -0.702794 0.745811 0.634741 0.228094 0.135783 -0.738477 0.102965 0.096839 0.584385 0.371579 0.030247 0.019694 0.387364 -0.184207 -0.605371 0.039296 -0.088459 -0.372434 0.491972 0.927213 -0.595571 -0.243168 0.032521 -0.364553 0.521206 0.338761 -0.701905 -0.659064 0.709420 0.418436 0.370273 0.154140 0.215112 -0.536847 -0.070559 -0.252049 -0.233183 -0.370532 0.015383 -0.355680 0.041232 0.003725 -0.166915 -0.223062 0.028626 -0.020349 0.020757 0.172408 0.223453 0.277789 -0.338500 -0.271023 0.228771 -0.201606 -0.160837 0.364278 -0.424167 -0.579198 0.576573 -0.207384 -0.224514 
9711002 -0.000599 0.001044 0.004597 0.001352 -0.003827 0.001508 -0.000389 0.004994 -0.000786 0.000209 0.004958 -0.000240 -0.004739 0.001224 -0.002815 0.001553 0.000201 -0.003447 0.002085 -0.001291 -0.001069 0.004706 0.002277 0.000252 -0.001578 -0.004489 -0.000889 -0.004753 0.002882 -0.000575 -0.002993 -0.002957 0.004076 -0.001065 -0.003795 0.002441 0.002440 0.002494 0.003834 -0.003736 -0.002289 0.002846 -0.004493 -0.003680 -0.004123 -0.000073 0.001453 0.004597 0.004543 0.001374 0.004924 -0.003551 0.000261 -0.001829 0.000924 0.002746 -0.002805 -0.003962 0.004738 0.001547 -0.003874 -0.003740 0.001289 0.001384 0.003335 -0.000254 -0.003971 -0.004480 0.002761 -0.001676 0.004180 -0.003921 0.000758 0.003767 0.003203 -0.002738 -0.003043 0.004622 0.001172 -0.003488 0.004341 0.000993 -0.004878 0.001562 0.004453 0.004666 0.004554 0.003300 -0.004241 -0.003920 0.004474 -0.003389 0.003781 0.001126 -0.002939 0.000089 -0.000556 -0.004704 -0.004098 -0.004718 
0103182 0.369818 -0.037577 0.325109 -0.309054 -0.283554 0.411715 -0.785838 0.222055 0.413006 0.158693 -0.696663 -0.742812 -0.197943 0.055586 0.045736 0.545554 0.586022 0.239824 -0.447657 -0.010204 0.219607 -0.135710 -0.233590 0.210679 0.334729 0.534689 -0.285175 0.046404 0.255569 0.452790 0.397084 -0.100000 0.006558 0.030535 -0.054242 0.252741 0.061434 0.130391 0.077558 0.099427 0.693277 0.255903 0.545432 0.540538 0.401181 0.139118 -0.087729 0.140424 0.305742 0.305902 0.594706 0.189187 -0.412221 -0.172254 -0.226373 -0.240577 0.435025 0.279865 0.108720 0.183001 0.204641 0.116346 0.315565 0.072897 0.426895 0.180944 -0.157401 0.134568 -0.071540 0.206921 0.542806 0.746473 0.132241 -0.059090 -0.180209 -0.280128 0.153368 -0.118196 -0.340027 -0.241112 -0.286632 -0.116392 0.307074 0.024097 -0.135786 1.074738 0.173310 0.224621 -0.290468 0.206917 0.722966 0.320751 0.330763 0.199422 -0.487331 0.560678 -0.472619 0.028269 0.075887 -0.681812 
9903048 -0.834240 0.102874 -0.058514 0.720362 0.207035 0.396007 -0.980490 -0.073496 1.039840 0.436121 -0.282051 -0.429985 -0.166341 0.007221 -0.696911 0.804908 0.012719 0.199788 -0.229305 0.049460 0.459726 1.261583 0.894071 -1.073285 -0.802523 -0.318370 0.244540 1.282400 -0.161369 -0.543866 0.509390 0.254936 0.065859 0.137338 0.745844 0.838189 0.746653 0.578124 -0.678357 -0.146205 0.411744 0.592417 0.888592 -0.311219 -0.344856 0.044490 0.089073 0.637193 -0.315273 0.950803 0.563088 1.056056 -0.021356 -0.206007 0.189676 -0.154340 -0.329940 0.396806 -0.075439 -0.018939 -0.419896 0.424379 -0.109214 0.166551 0.196506 -0.533477 -1.013683 0.514206 -0.036021 0.675373 -0.305619 0.904816 0.344637 -0.053785 -0.041309 0.279571 -0.120654 -0.401790 0.037357 -0.302242 -0.351178 -0.476921 0.340752 0.732216 -0.183114 0.660640 0.616199 -0.407019 -1.315397 0.826369 0.651792 0.627709 0.074659 -0.219119 -0.734146 0.626150 -0.633625 0.671076 0.475183 -0.433728 
0104005 -1.081792 0.927136 0.649161 0.025619 -0.139544 0.525171 -0.151796 0.222353 1.895631 0.823153 -1.849541 -0.671181 0.709216 -0.215537 -0.329003 0.327205 0.607476 0.019027 -1.163497 0.406838 -0.790183 0.495088 -0.017221 -0.370183 -0.247308 0.618439 0.011124 0.712172 0.284763 -0.289351 0.045335 0.311705 -0.344818 -0.424797 -0.822398 0.463666 -0.326013 0.380105 -0.019224 -1.042263 0.560032 -0.219665 0.923990 -0.476405 -0.983609 0.405054 0.869204 0.554722 0.664267 1.303674 0.375672 0.854423 0.247596 -0.212293 -0.429313 0.259663 -0.395036 -0.197310 0.778149 -0.501417 -0.169110 0.290754 0.241287 0.752797 0.868099 -0.017324 -0.935662 0.903972 -0.677353 0.577896 0.167910 -0.131708 -0.654503 0.055150 -0.558267 -0.344365 -0.238579 -0.333384 0.123595 -0.168136 -0.770182 0.343828 0.224192 -0.365432 -0.812683 0.179511 -0.113145 0.075236 -0.016041 -0.437791 0.792985 0.163261 -0.592718 -0.266074 0.010410 0.172236 0.679182 0.382450 -0.633982 -0.688103 
0104066 0.011452 -0.020102 -0.218808 0.666232 0.260649 -0.123918 0.174351 -0.503852 0.313224 -0.452622 0.561967 -0.070693 0.213252 -0.149129 -0.276019 0.302163 -0.138024 -0.408332 -0.607608 -0.661088 0.219194 0.549562 0.440897 -0.735673 -0.229580 -0.323322 0.204635 0.248711 0.025159 0.075934 0.301251 -0.370601 -0.187557 -0.034488 -0.498673 0.401579 0.517225 -0.365935 0.003059 -0.389604 0.550618 0.321694 -0.007474 0.451691 0.039839 0.011921 -0.325709 0.221523 0.384452 0.326515 -0.062396 0.079230 0.174849 -0.698159 -0.061188 0.379299 0.159955 0.115270 0.121309 -0.537104 0.311445 -0.093118 -0.535481 0.375816 0.010190 -0.361993 -0.128447 0.562298 -0.192792 -0.060225 -0.187015 -0.289032 -0.246542 -0.381702 0.363013 0.131587 -0.221052 0.190215 -0.478717 0.514339 -0.412597 0.145319 0.462296 0.370308 -0.316554 0.649034 0.239876 0.166866 -0.525043 -0.033238 -0.061416 0.172574 0.495838 0.414347 -0.775986 0.147505 -0.532789 0.355540 0.503126 -0.418790 
9609052 0.003934 0.003730 0.004942 0.004745 -0.003447 0.000422 0.000716 0.001091 -0.002917 0.003343 -0.000102 -0.000567 -0.001864 -0.003643 0.002146 0.000836 0.004988 -0.004327 0.000841 0.003623 0.004728 -0.003492 -0.000674 -0.004005 0.002422 -0.001404 0.004249 -0.002131 0.004079 0.004720 0.004861 0.001798 -0.001971 -0.001277 -0.000363 0.001859 0.001731 -0.001391 -0.001610 -0.002287 -0.002924 0.001706 -0.004947 0.004948 -0.004210 -0.000128 0.001839 0.001610 -0.000927 0.001330 -0.001650 -0.001095 0.001063 0.003677 0.004921 -0.001463 0.003791 0.001774 -0.003342 -0.002154 -0.003273 -0.000128 -0.001715 0.000422 0.002431 0.001017 0.001635 0.000060 0.004949 -0.004946 -0.002899 -0.004142 -0.003332 -0.004113 -0.001210 -0.004724 -0.001629 0.001182 0.001968 0.004303 0.000868 0.002417 0.002744 0.000816 -0.001849 0.000554 0.002654 0.003135 -0.004279 0.001585 0.001098 0.001573 -0.004615 0.002494 -0.001979 0.004955 -0.001332 -0.003926 -0.000097 -0.004240 
0104231 -0.001496 0.001644 0.000361 -0.003045 -0.003914 0.004009 0.001682 0.000362 0.002631 -0.002257 -0.001532 -0.002281 -0.004066 0.001079 0.004478 0.001245 0.004989 0.001128 -0.001852 -0.001867 0.002492 0.001323 0.000958 -0.002784 -0.003642 -0.001438 -0.004245 -0.003707 0.002838 0.000289 -0.002771 0.003006 0.004018 -0.003045 -0.002640 0.003535 0.003823 0.000868 0.001909 -0.002192 -0.001853 0.000572 -0.000638 -0.003838 -0.002538 -0.002201 0.000375 -0.004732 0.003412 -0.000472 -0.001611 0.000395 0.003270 0.001810 0.001400 0.001873 -0.002055 0.003514 -0.004994 -0.000233 -0.002171 -0.003665 -0.001756 0.002901 0.001192 -0.002776 -0.004996 -0.000370 0.003034 -0.002402 -0.000320 -0.002690 -0.003785 0.000539 0.004225 -0.002075 -0.000343 -0.001300 0.001196 -0.003820 -0.003481 -0.001993 0.001295 -0.002550 0.001885 0.001101 0.003586 0.004223 -0.000033 -0.003668 0.002099 -0.000207 -0.001713 0.003712 -0.004555 0.004397 -0.002049 -0.002910 -0.002386 0.001676 
0105082 -0.998018 0.332285 0.156364 0.782147 -0.307212 0.507406 -0.299939 0.394604 0.704642 0.781380 0.362371 -0.898636 -0.405295 0.190211 0.389072 -0.001350 -0.401595 -0.780194 -0.432562 0.098686 -0.530612 0.114317 0.073781 -0.645920 0.203121 0.545958 -0.140658 1.087610 0.506190 -0.345608 0.071677 0.065093 -0.149782 -0.106541 -0.037299 -0.203822 -0.453108 -0.281603 0.377730 -0.415835 -0.108048 0.176615 0.162380 -0.767997 -0.606641 -0.332069 0.285315 1.134836 0.490862 0.457835 0.945367 0.545883 -0.215838 -0.893102 -0.210816 0.036171 0.085414 0.265480 0.195214 -0.612010 0.957225 -0.114204 -0.220557 0.213722 -0.035282 -0.434466 -0.490930 -0.109955 -1.457564 0.637917 1.060440 0.556961 0.166775 0.332807 -0.449180 0.783258 -0.264304 0.620275 -0.406149 0.638391 -1.183307 0.667174 0.706282 0.582339 0.392058 -0.137454 0.196713 0.439934 -0.486011 0.375618 0.442901 0.753166 0.292723 -0.577980 -0.667682 0.368271 -1.471217 0.601187 -0.106555 -0.236576 
0010175 0.116058 0.282075 -0.013209 0.173373 0.186573 0.518895 -1.118267 -0.793363 0.553458 0.515733 0.401942 0.297208 0.004306 0.751910 -0.885028 0.205129 0.127187 -0.746620 0.140488 -0.349580 -0.363255 0.133059 -0.877093 -0.516551 -0.421934 -0.611597 -0.559871 0.820231 0.180381 -0.492403 0.551214 -0.411369 0.448346 -0.246403 -0.343393 0.162988 -0.247834 0.184903 -0.285913 -0.454026 1.068788 1.686848 0.501728 -0.110934 0.874229 -0.226044 0.890327 0.285477 0.865938 -0.281564 -0.459018 0.213966 -0.548711 0.308456 -0.087546 0.453176 -0.485758 0.535794 1.195253 -0.682560 0.432957 -0.577547 -0.174470 0.880221 0.749139 -0.507578 -0.972585 -0.301679 0.034346 -0.688389 -0.649892 -0.582881 0.662376 0.375581 -0.213703 0.005775 -1.218966 -0.082755 -0.538648 -0.191060 -0.574879 1.344811 0.357473 -0.391061 -0.386113 0.836704 0.465035 -0.467505 -0.117867 0.664777 -0.289886 0.511900 0.427678 0.028639 -0.050481 0.128066 -0.726513 0.287656 0.493986 -0.209764 
0105107 0.000886 0.000969 0.003285 -0.003558 0.000145 -0.001694 -0.003578 -0.004743 0.001524 0.003283 0.002052 0.000271 -0.003688 0.003223 0.004690 -0.004258 0.003768 -0.002780 0.003010 0.004708 -0.000726 0.003523 0.002304 0.001806 -0.001965 -0.003161 0.001702 0.001027 -0.000416 0.001382 -0.003477 -0.004912 -0.000683 0.004140 0.000195 0.003459 0.001481 -0.004892 -0.004417 0.001489 0.003023 0.004138 -0.000211 0.003522 -0.001426 -0.002268 -0.001599 -0.001393 0.000629 0.002570 0.001798 -0.000326 0.001936 -0.001895 0.004072 0.003112 0.000436 -0.001478 0.003346 0.001735 -0.004081 -0.002466 0.003039 0.004189 0.002598 -0.000412 -0.000426 0.000815 -0.000641 0.002925 -0.001639 -0.001573 -0.001255 -0.004410 0.001686 0.001906 0.003406 -0.002167 -0.003651 -0.003409 0.002471 0.002599 -0.004833 -0.004049 -0.000657 -0.000049 -0.004035 -0.000074 0.004113 -0.002108 -0.000461 -0.000928 0.004388 0.004988 0.003418 -0.001245 -0.002423 -0.003533 -0.002652 0.000193 
0105108 0.384396 -0.021910 0.335445 -0.319237 -0.292875 0.442618 -0.780569 0.211875 0.442433 0.199223 -0.665767 -0.752617 -0.227664 0.107557 -0.009789 0.540562 0.600270 0.247972 -0.467980 -0.021157 0.174339 -0.141933 -0.209779 0.185429 0.302151 0.531818 -0.260586 0.046244 0.291168 0.425906 0.402421 -0.117799 0.004135 0.034813 -0.019024 0.230299 0.095367 0.114353 0.055987 0.116322 0.707115 0.252239 0.524341 0.531284 0.369530 0.108966 -0.045824 0.125179 0.310493 0.331813 0.573952 0.203656 -0.401968 -0.179033 -0.227356 -0.229083 0.397413 0.243574 0.075166 0.202806 0.190283 0.141082 0.337805 0.049203 0.367395 0.186681 -0.157563 0.155508 -0.051643 0.203476 0.532245 0.713155 0.083869 -0.034768 -0.180825 -0.282113 0.157550 -0.086410 -0.301255 -0.225756 -0.290359 -0.106379 0.308986 0.000718 -0.140522 1.038006 0.170398 0.216237 -0.306731 0.194713 0.743751 0.314670 0.329953 0.199841 -0.451383 0.545957 -0.465830 0.024939 0.077739 -0.680413 
0105111 0.003587 0.000386 0.002119 0.002926 0.002321 -0.001057 -0.003456 0.001587 -0.000911 -0.000518 0.002871 0.000586 -0.002872 -0.003230 -0.004793 -0.003054 -0.003302 -0.002285 0.002463 0.004526 -0.004084 -0.001534 -0.001896 -0.002075 -0.001683 0.004054 -0.004378 -0.003654 -0.002408 0.000839 -0.004062 0.004420 -0.004076 0.000439 0.004994 -0.003806 0.000424 -0.003274 0.001232 -0.003372 -0.000718 -0.002045 -0.000162 0.003986 0.004879 0.003278 -0.000510 -0.004811 0.003812 -0.002071 0.003365 0.002384 0.001584 -0.004051 0.001786 0.004958 -0.003640 0.003720 0.004714 -0.004247 -0.002619 0.001827 -0.001007 0.004972 0.001391 0.000153 0.004646 0.003765 -0.000645 0.002095 -0.004089 0.003707 -0.000403 -0.004923 -0.004479 -0.000236 -0.003849 0.001853 0.001037 0.004092 0.003125 0.003967 0.002768 0.003823 0.004340 -0.003408 0.001034 -0.003706 0.000156 0.004330 0.003808 -0.001286 0.003669 -0.003640 -0.002924 -0.004615 -0.000368 -0.001622 -0.000954 0.003887 
0105145 -0.165535 -0.077697 -0.149960 -0.400713 0.007496 0.014805 0.118797 0.372268 0.160673 0.015509 0.050379 -0.177760 -0.256202 -0.054777 0.563671 -0.449498 -0.640911 0.024792 0.672485 0.305856 -0.455972 -0.727517 -0.820802 0.804052 0.201249 0.244364 -0.446785 0.064285 0.073626 -0.361719 -0.248534 -0.584112 0.257171 -0.076107 -0.123807 -0.072225 0.525119 0.572091 0.088519 0.182643 0.848468 -0.128808 0.228553 -0.193678 -0.459093 -0.281009 -0.236360 -0.129819 -0.305438 0.255176 0.168431 -0.178184 0.186350 0.168292 0.293183 -0.232107 -0.551003 0.286615 0.405513 -0.080314 0.349146 -0.528533 -0.176339 0.584693 -0.391376 -0.430406 -0.061217 0.218321 0.623988 0.005432 0.269253 -0.439798 -0.146648 0.132903 -0.789680 -0.660737 -0.173639 0.257842 0.354000 0.019757 -0.046752 0.064398 0.240743 0.077310 -0.374515 0.439646 0.048371 0.032598 -0.305838 0.276351 1.158374 0.271798 0.596943 0.857333 -0.741382 0.483469 -0.406534 1.073858 -0.001161 -0.438797 
9701060 0.208467 0.259414 -0.011449 0.755604 0.033648 0.149528 -0.679005 0.097377 0.717325 0.810501 -0.325128 0.774944 0.574948 -0.783022 -0.542903 0.562272 0.654797 0.262303 -0.244788 -0.605509 -0.245894 0.573910 -0.084827 -0.950083 -0.799653 0.252063 -0.110685 0.743340 -0.308682 -0.438902 -0.101665 0.311655 0.034194 -0.064509 -0.472457 0.568989 0.624995 0.204589 -0.588511 0.089226 1.147988 -0.332823 0.861554 0.601615 0.022505 0.435629 0.891022 0.810104 0.709339 0.232834 0.721138 -0.214274 0.322100 -0.413660 0.408105 -0.523696 -0.695501 -0.128700 -0.023970 -0.359976 -0.284872 1.095834 0.038850 1.411436 0.300743 -0.010197 -0.809251 -0.021037 -0.452029 0.463960 -0.608157 0.207069 -0.031245 0.259472 0.219050 1.134359 -0.853532 1.119060 -1.362059 0.491426 0.219615 0.186205 0.281604 -0.649220 -0.805367 0.768293 0.580421 0.161139 0.035333 0.493982 0.470635 0.399969 -0.457218 0.533913 -0.207736 -0.838872 0.259875 1.328771 0.101240 0.595516 
9707257 -0.021020 0.012756 0.018863 -0.001993 -0.033912 0.029140 -0.053515 -0.032669 0.044347 0.060752 -0.057860 -0.042201 0.008952 0.065318 -0.028139 0.030387 0.021931 0.048638 -0.064950 -0.010863 -0.002198 -0.013235 -0.004949 0.005524 0.040725 -0.030117 0.015390 -0.063495 0.001681 0.019149 -0.027471 -0.000135 -0.015005 0.029906 0.056133 -0.055436 0.047976 0.048309 -0.000013 -0.073983 0.100834 0.046905 0.023459 0.062348 -0.053487 -0.019803 0.016318 0.062763 0.028687 0.078224 -0.016429 0.035379 -0.020038 -0.049016 -0.010096 0.004217 -0.005317 0.043617 0.041136 -0.035142 -0.018371 -0.060031 -0.052283 0.042718 0.006443 -0.056315 -0.042357 0.039175 0.006622 -0.001454 0.015020 0.009067 0.047358 0.003982 -0.043512 -0.040785 -0.041084 0.070131 -0.059738 0.076422 -0.095395 0.051595 0.018185 0.006120 -0.052851 0.055880 0.063753 0.010029 -0.025212 0.014259 0.014878 0.019566 0.035544 0.063880 -0.056084 0.067169 -0.030510 0.076496 0.047000 -0.066011 
0105259 0.361218 0.063428 -0.134189 0.008377 0.443418 0.140181 -0.552273 -0.248920 0.160254 0.843203 -0.686042 -0.356862 0.017154 0.452546 -0.391488 0.273287 0.413640 0.352313 -0.175441 -0.119091 -0.124709 0.191662 0.357150 0.083698 -0.277094 0.482039 -0.371586 0.608958 0.294552 0.329931 -0.019288 -0.048299 -0.068360 -0.077906 -0.126023 0.235041 0.217418 0.766285 -0.603624 -0.167575 0.615333 -0.268393 0.072502 0.008825 -0.674914 -0.174013 -0.242154 0.153467 0.457199 0.357475 -0.217877 0.252450 0.007735 0.310071 -0.142499 -0.073997 0.205252 0.026348 -0.214503 0.059880 -0.089998 0.405565 0.406904 -0.776046 0.176044 0.450177 0.051715 -0.044004 0.166873 0.474621 0.002804 -0.222909 -0.394115 -0.257675 0.491640 -0.302228 -0.573904 0.169089 -0.442552 0.255057 -0.670671 0.218343 -0.095053 -0.470358 -1.064974 0.811005 0.041565 0.472763 0.032615 0.697943 0.273191 0.503805 0.718427 0.329181 -0.079300 -0.106078 -0.297200 0.567315 0.537351 -0.224184 
0106143 -0.034188 -0.491344 -0.267829 0.052168 0.161767 -0.240651 -0.435581 0.184196 1.112312 0.750470 -0.720185 -0.185268 0.518937 0.173467 0.221195 0.211511 0.127849 -0.003668 -0.106609 0.118504 -0.027164 0.291356 0.237305 -0.620321 -0.138284 0.116266 0.036590 0.461337 0.668959 0.457900 -0.169607 -0.241109 -0.162480 -0.372383 -0.321978 -0.263741 -0.377618 0.049211 -0.556335 0.377999 0.355093 0.130681 0.413212 -0.435892 -0.104116 0.329678 0.225368 0.312082 0.044289 -0.142415 0.415881 0.038263 -0.065771 -0.167350 -0.370612 -0.320141 0.151839 0.295763 0.470807 -0.711545 0.029390 0.325905 0.052803 0.326205 0.064196 -0.128800 -0.254094 -0.416648 -0.130244 0.160202 -0.192698 0.095131 -0.248583 -0.126233 -0.198788 0.040239 -0.318555 -0.053635 -0.272757 -0.835833 -0.123635 0.203003 0.659754 -0.082763 -1.336720 0.906094 0.602239 0.681358 0.149671 0.399791 0.011596 0.195535 0.569972 1.020092 -0.414284 0.526232 -0.310765 0.792180 0.394529 -0.899809 
9505157 -0.156013 0.686978 0.044947 0.582946 -0.101159 -0.306952 -0.619837 -0.282517 0.935451 -0.402728 -0.123993 -0.697688 -0.358915 0.369887 -0.166576 -0.347137 0.607658 0.575570 0.675088 -0.374346 0.333696 0.597253 -0.154939 -0.664164 0.405420 -0.098981 0.203014 0.229027 -0.253350 0.191972 0.932232 -0.994209 -0.239758 -0.195824 -0.236214 0.268887 -0.125226 0.852324 -0.143373 -0.120574 1.603096 0.421911 0.483910 0.361984 0.182578 0.479346 0.031876 0.374932 0.734266 0.270292 -0.269233 0.904087 0.165393 -0.455773 0.666171 0.049415 0.623018 1.050228 0.815614 0.719124 -0.201065 -0.358259 -0.664885 0.119838 0.479983 -0.114788 -0.065283 0.863490 -0.886253 -0.226184 0.779741 0.921639 0.079038 0.027364 -1.123790 0.229985 -0.737438 0.102435 -0.521104 0.413142 -1.581203 0.953664 0.803679 0.358025 0.072994 0.257226 -0.248384 0.627300 0.399619 -0.054493 0.186215 -0.210832 0.225091 0.083253 -0.719434 -0.253131 0.180479 0.527386 -0.255823 -0.228998 
0107083 0.393847 -0.027088 0.332124 -0.298934 -0.299723 0.425862 -0.782130 0.236583 0.427890 0.165424 -0.668876 -0.733188 -0.212020 0.081017 0.004485 0.523559 0.607281 0.252613 -0.436991 -0.013201 0.147641 -0.159682 -0.200379 0.207180 0.316770 0.520913 -0.277313 0.059024 0.295547 0.435454 0.403802 -0.098238 -0.022870 0.001942 -0.002139 0.255618 0.079928 0.126080 0.057963 0.085962 0.699736 0.262467 0.511097 0.541332 0.386412 0.144835 -0.063470 0.156029 0.326480 0.348992 0.582276 0.204299 -0.418481 -0.185525 -0.258216 -0.226577 0.412598 0.257375 0.090672 0.185062 0.206168 0.138791 0.346192 0.052532 0.381285 0.200843 -0.157174 0.154961 -0.009203 0.210212 0.516162 0.704724 0.099638 -0.025156 -0.185780 -0.272157 0.156153 -0.077578 -0.309981 -0.223430 -0.278925 -0.123185 0.307544 0.019085 -0.116128 1.034929 0.159399 0.217843 -0.293455 0.201187 0.737659 0.328482 0.347600 0.206150 -0.476246 0.556348 -0.446343 0.053342 0.116690 -0.677682 
0107214 0.025097 0.209040 0.198236 -0.555172 -0.123656 0.510568 -0.260365 -0.019268 0.558312 0.361824 -0.678555 -0.478643 -0.232613 -0.520410 0.176529 0.271326 -0.201977 0.016950 0.210115 0.068446 0.613304 0.458846 0.811510 -1.086183 -0.506029 0.153501 -0.048536 0.901643 0.858792 0.125652 0.415845 0.275845 0.100579 -0.086680 0.078049 -0.094835 -0.232241 0.056861 -0.142194 -0.079823 0.194871 0.095112 0.023257 -0.170173 0.002734 -0.317988 0.396830 0.323428 -0.016031 0.073439 0.248896 0.026132 -0.037670 0.059769 -0.007140 -0.291284 -0.144308 0.396303 0.065124 -0.363109 0.166633 -0.497015 -0.232573 0.005234 0.413688 -0.418506 0.146442 0.277886 -0.561103 -0.089147 0.163232 0.841602 -0.269895 0.229031 0.147356 0.290544 -0.250816 0.041980 0.022523 -0.130685 -0.191458 0.091955 -0.007008 0.301868 -0.686747 0.700592 0.855593 0.234568 0.106205 1.116905 0.520234 0.328938 0.513421 0.558902 -0.531558 0.001331 -0.981997 0.773381 0.754171 -1.064548 
9911150 -0.409886 -0.159015 0.192820 -0.036095 -0.054224 -0.324284 -1.168445 -0.958282 0.243071 -0.134515 -0.388910 -0.273617 0.105778 -0.523738 -0.754616 0.215601 0.186649 -0.380315 0.379789 -0.579174 0.333725 -0.128659 1.078232 -0.663946 -0.043391 0.104466 0.235534 0.210426 0.171600 -0.589792 0.126096 -0.231321 1.108390 -0.397502 -0.937088 0.203332 -0.204115 -0.050005 0.468231 0.856904 0.328676 0.177642 0.241128 0.313107 -0.213449 0.338008 0.597668 0.334833 -0.243772 0.801768 0.117392 -0.740282 -0.076115 -0.516422 -0.851481 -0.160021 0.268709 0.174807 0.592193 -0.715938 -0.232761 -0.490142 0.191461 -0.109011 0.481202 -0.925765 -0.527973 -0.087613 -0.861367 -0.237163 0.188481 0.318820 0.106418 0.503765 -0.132829 -0.755590 -0.739193 0.629364 -1.320893 0.879791 -1.291007 1.003516 0.316404 -0.534460 -0.345905 -0.007607 1.035855 -0.371046 -0.194031 0.125503 -0.259668 0.523376 -0.546807 -0.234211 -0.473265 0.677346 -0.431305 1.078462 0.036286 -1.080866 
0008063 -0.937741 0.733391 0.752548 0.644756 -0.666315 -0.155866 -0.201297 0.184911 0.851345 0.340574 -0.816502 -0.340617 0.409965 -0.565958 0.052343 0.832780 0.511881 -0.326152 -0.656326 -0.598215 0.005102 0.878917 0.465883 -1.408931 -0.175277 -0.320370 -0.075198 0.665353 0.694328 -0.442330 0.315690 0.249602 -0.328167 0.115282 -0.117111 0.209561 0.405680 1.102452 -0.461084 -0.399844 1.545096 0.732521 0.098780 0.781397 0.199000 -0.460201 0.439049 0.796172 0.931026 0.536684 0.077411 0.129241 0.102905 0.181653 -0.190733 0.134038 -0.133311 -0.101815 0.035521 0.080878 -0.257531 -0.077587 -0.240279 0.720875 0.836964 -0.867457 0.125043 0.379804 -0.918313 -0.285278 0.498672 0.821958 0.651142 -0.116536 -0.002917 -0.656335 -0.654349 1.227766 0.300754 0.091080 -0.849389 0.460331 -0.412462 -0.189622 -0.299976 -0.208638 0.072952 -0.102438 0.187313 0.326656 -0.473214 -0.644920 -0.379583 0.702394 0.130384 0.182130 -0.617815 0.227358 0.748998 -0.947743 
